the 0.04656 0.21318 -0.0074364 -0.45854 -0.035639 0.23643 -0.28836 0.21521 -0.13486 -1.6413 -0.26091 0.032434 0.056621 -0.043296 -0.021672 0.22476 -0.075129 -0.067018 -0.14247 0.038825 -0.18951 0.29977 0.39305 0.17887 -0.17343 -0.21178 0.23617 -0.063681 -0.42318 -0.11661 0.093754 0.17296 -0.33073 0.49112 -0.68995 -0.092462 0.24742 -0.17991 0.097908 0.083118 0.15299 -0.27276 -0.038934 0.54453 0.53737 0.29105 -0.0073514 0.04788 -0.4076 -0.026759 0.17919 0.010977 -0.10963 -0.26395 0.07399 0.26236 -0.1508 0.34623 0.25758 0.11971 -0.037135 -0.071593 0.43898 -0.040764 0.016425 -0.4464 0.17197 0.046246 0.058639 0.041499 0.53948 0.52495 0.11361 -0.048315 -0.36385 0.18704 0.092761 -0.11129 -0.42085 0.13992 -0.39338 -0.067945 0.12188 0.16707 0.075169 -0.015529 -0.19499 0.19638 0.053194 0.2517 -0.34845 -0.10638 -0.34692 -0.19024 -0.2004 0.12154 -0.29208 0.023353 -0.11618 -0.35768 0.062304 0.35884 0.02906 0.0073005 0.0049482 -0.15048 -0.12313 0.19337 0.12173 0.44503 0.25147 0.10781 -0.17716 0.038691 0.08153 0.14667 0.063666 0.061332 -0.075569 -0.37724 0.01585 -0.30342 0.28374 -0.042013 -0.040715 -0.15269 0.07498 0.15577 0.10433 0.31393 0.19309 0.19429 0.15185 -0.10192 -0.018785 0.20791 0.13366 0.19038 -0.25558 0.304 -0.01896 0.20147 -0.4211 -0.0075156 -0.27977 -0.19314 0.046204 0.19971 -0.30207 0.25735 0.68107 -0.19409 0.23984 0.22493 0.65224 -0.13561 -0.17383 -0.048209 -0.1186 0.0021588 -0.019525 0.11948 0.19346 -0.4082 -0.082966 0.16626 -0.10601 0.35861 0.16922 0.07259 -0.24803 -0.10024 -0.52491 -0.17745 -0.36647 0.2618 -0.012077 0.08319 -0.21528 0.41045 0.29136 0.30869 0.078864 0.32207 -0.041023 -0.1097 -0.092041 -0.12339 -0.16416 0.35382 -0.082774 0.33171 -0.24738 -0.048928 0.15746 0.18988 -0.026642 0.063315 -0.010673 0.34089 1.4106 0.13417 0.28191 -0.2594 0.055267 -0.052425 -0.25789 0.019127 -0.022084 0.32113 0.068818 0.51207 0.16478 -0.20194 0.29232 0.098575 0.013145 -0.10652 0.1351 -0.045332 0.20697 -0.48425 -0.44706 0.0033305 0.0029264 -0.10975 -0.23325 0.22442 -0.10503 0.12339 0.10978 0.048994 -0.25157 0.40319 0.35318 0.18651 -0.023622 -0.12734 0.11475 0.27359 -0.21866 0.015794 0.81754 -0.023792 -0.85469 -0.16203 0.18076 0.028014 -0.1434 0.0013139 -0.091735 -0.089704 0.11105 -0.16703 0.068377 -0.087388 -0.039789 0.014184 0.21187 0.28579 -0.28797 -0.058996 -0.032436 -0.0047009 -0.17052 -0.034741 -0.11489 0.075093 0.099526 0.048183 -0.073775 -0.41817 0.0041268 0.44414 -0.16062 0.14294 -2.2628 -0.027347 0.81311 0.77417 -0.25639 -0.11576 -0.11982 -0.21363 0.028429 0.27261 0.031026 0.096782 0.0067769 0.14082 -0.013064 -0.29686 -0.079913 0.195 0.031549 0.28506 -0.087461 0.0090611 -0.20989 0.053913
office -0.36322 0.049952 -0.31563 -0.039297 0.10458 0.027566 -0.26305 -0.12784 -0.40336 -1.7768 -0.15068 0.28388 0.085887 -0.10529 0.0066189 0.30767 -0.16666 -0.080571 0.19874 0.30572 0.42497 0.015384 0.59687 -0.23822 -0.32237 0.49718 -0.069131 -0.19626 -0.0091044 -0.08114 -0.073222 0.072103 0.0646 0.39395 -0.7543 0.13913 -0.27988 -0.18719 -0.4368 -0.38775 -0.075361 0.3798 -0.4122 0.44224 -0.20626 -0.39487 -0.17117 -0.062281 -0.10717 -0.028375 -0.34845 -0.59147 0.35557 0.43543 0.40222 -0.21719 -0.057734 0.35409 -0.27006 -0.25087 0.057196 -0.10526 0.24783 0.41283 0.41577 -0.9663 0.061602 0.22774 0.0043035 -0.46671 0.044277 -0.094519 0.32041 0.62659 -0.13462 0.085035 -0.24106 0.32363 0.18135 0.10726 0.098939 0.43534 -0.11217 0.56504 0.34929 -0.051243 -0.30226 0.023168 -0.059041 0.060922 -0.33489 -0.28056 -0.17953 0.080631 -0.09841 0.17785 -0.53962 0.072694 0.21892 -0.40478 0.11087 -0.45494 -0.43626 -0.30973 -0.15363 -0.4913 -0.1317 -0.21974 0.11558 0.35844 -0.18628 -0.030653 -0.62675 0.21277 0.38545 0.23776 -0.35759 -0.26485 -0.041015 -0.4481 0.65567 0.25094 0.35644 0.13222 -0.37605 -0.23965 0.2147 0.024397 0.16441 0.40049 0.028636 -0.028795 0.18227 -0.18728 0.096655 -0.13656 0.11199 0.11383 0.17819 -0.22435 -0.28343 -0.19088 0.11357 0.37749 0.018906 -0.46729 0.19769 0.53859 -0.00063339 -0.29682 1.343 0.029186 0.29902 0.081085 -0.20146 0.45541 -0.0078672 -0.0077858 0.59106 -0.094978 -0.10315 0.26666 0.40611 -0.10003 0.24628 0.21849 -0.11237 -0.20771 0.098583 0.65671 -0.47561 -0.18175 -0.98547 -0.19112 0.21756 0.42795 -0.0090101 -0.18623 -0.53784 -0.52085 0.0342 0.49163 0.13158 0.073925 0.25872 -0.055099 0.2755 0.40577 -0.058922 0.33864 0.56398 -0.20904 -0.31635 -0.23093 -0.041483 0.2369 -0.37884 0.15827 -0.1417 0.44161 0.26085 -0.36801 -0.42472 0.11036 0.012091 -0.33678 0.04299 -0.22511 -0.031647 -0.11691 -0.0946 0.3058 -0.3514 -0.40712 0.27141 -0.0074659 -0.51142 0.35629 0.040565 -0.33218 0.17028 -0.36283 -0.38017 0.60675 0.078719 -0.6052 -0.12807 0.15938 -0.18107 -0.15934 0.20937 -0.12669 0.06887 -0.36889 0.14475 -0.21691 0.39998 0.16896 0.33258 0.11423 -0.21167 -0.12705 0.30262 -0.053809 0.094892 0.37913 0.66611 -0.9176 0.32035 0.095762 0.27607 0.12877 0.24351 -0.44205 0.39785 -0.6369 -0.042229 0.068454 0.30787 0.061439 -0.50235 -0.0082336 0.29622 -0.1879 0.33165 -0.32211 0.42114 -0.049972 -0.10481 -0.15908 -0.36603 0.096402 0.13957 -0.11302 -0.12466 -0.066386 -2.3162 0.66318 0.75894 -0.16946 -0.32316 -0.2154 0.15623 -0.066873 -0.16003 0.63902 -0.10301 1.0519 -0.199 -0.14799 -0.056006 0.21749 -0.17419 0.030983 0.13269 0.80565 -0.28988 -0.23533 -0.3617 0.45278
yellow -0.053451 0.049399 0.1133 -0.81798 -0.16358 -0.36432 -0.33575 0.21698 0.042317 -0.3926 -0.035378 -0.0348 -0.060154 0.379 0.53437 0.050541 -0.60727 -0.082391 -0.15367 -0.040173 -0.13475 -0.3596 -0.28424 -0.10581 -0.5576 -1.1103 0.19474 -0.018737 -0.49026 0.10412 0.035321 -0.026417 -0.61308 0.15546 -0.54525 0.77871 0.054974 -0.9735 -0.50176 0.5296 0.13262 0.15485 0.039066 0.047263 0.19182 -0.38634 0.32109 -0.073144 -0.3178 -0.4068 -0.18189 0.27076 0.63926 -0.34426 -0.12232 -0.098807 -0.25992 -0.53385 0.38484 -0.40463 0.010561 -0.00098567 0.11382 -0.10832 0.0062592 -0.46039 0.081344 -0.30735 -0.15606 -0.42135 0.15888 0.26271 -0.084774 0.18735 -0.29441 0.44121 0.036099 -0.035707 0.46326 -0.086447 0.37298 0.51587 -0.14715 -0.24463 0.28377 0.075252 0.33772 0.078275 0.27228 0.16643 0.78615 -0.0097923 0.43605 -0.10882 -0.44528 0.90735 0.18723 0.48278 0.38683 -0.39967 0.50976 0.18249 0.22519 0.060116 -0.72595 0.17914 0.26161 0.56334 -0.43374 0.15254 -0.16539 0.20417 0.26792 -0.36201 -0.088387 0.16194 -0.48038 1.1645 0.29721 -0.41363 -0.22492 -0.88636 0.23716 0.25074 -0.30289 0.1828 -0.049217 0.6351 0.28529 -0.075339 -0.042613 0.075495 0.087472 -0.21078 -0.068478 -0.10421 0.0061102 -0.40101 0.29868 0.42409 0.043369 0.56351 -0.077976 -0.89113 0.24007 0.28774 0.013228 0.043571 0.32901 0.29148 0.19124 0.44252 0.019013 -0.070989 0.75198 -0.07171 0.13932 -0.63325 -0.43477 0.17454 -0.096236 -0.6615 0.26715 0.079176 0.027746 -0.094642 -0.8394 0.53268 -0.31225 -0.15623 0.049831 0.2337 -0.1827 -0.053712 0.040991 -1.1781 0.16155 -0.29035 -0.072907 -0.33563 -0.5916 -0.083755 0.27373 0.35948 -0.67473 -0.9355 0.46409 0.32019 0.0013053 -0.33555 0.73012 0.36452 -0.00075449 0.063555 0.7048 -0.37382 -0.40746 -0.34653 -0.17699 0.43293 1.1375 0.18624 0.088088 -0.4364 0.311 -0.23293 0.26517 0.47094 -0.24311 0.4577 0.28636 -0.77083 -0.11617 -0.60075 0.84668 0.1409 0.82911 -0.33197 0.21844 -0.45865 0.87952 -0.44127 -0.27312 0.052576 0.513 -0.46526 0.098283 -0.1688 -0.16457 -0.18846 -0.77636 -0.35737 0.085032 0.46366 0.24375 -0.0018571 -0.15787 -0.068266 0.071139 -0.18877 0.10381 -0.12473 -0.16172 0.057486 -0.52057 0.15398 0.7321 -0.41707 -0.054213 -0.46626 0.034799 0.25439 -0.14704 -0.33638 0.7544 0.098455 -0.25886 -0.38195 0.13869 -0.09893 0.029346 -0.27736 0.57653 0.14991 -0.41554 0.028293 -0.29915 -0.59662 -0.23111 0.45209 0.17526 -0.17549 -0.28811 0.37807 -0.44581 0.072059 -1.5835 -0.37665 -0.50871 0.24268 0.26462 0.33598 -0.27626 -0.17266 0.025933 0.12965 -0.078678 0.018592 0.078747 -0.21199 0.28861 -0.025708 -0.37781 0.39799 -0.39309 -0.067548 0.68055 0.14276 0.8849 -0.79119
bedroom -0.24937 0.30013 -0.8381 0.093816 0.35599 0.19234 -0.77012 -0.62159 0.02578 -0.23759 -0.145 0.015191 0.34879 0.21013 0.26656 0.3143 0.30805 -0.43258 0.37004 0.070386 -0.049345 0.51324 0.019016 -0.1528 -0.047734 -0.21224 0.38141 -0.04132 0.25212 -0.063425 -0.46561 0.33669 -0.29887 0.13874 -0.057216 0.54223 -0.47517 -0.094412 0.016468 -0.12206 0.085148 -0.10097 -0.44207 0.14838 0.54241 0.22643 0.52977 -0.13312 0.091934 -0.13682 0.15716 -0.15 0.47 0.12559 0.066349 -0.54683 0.43315 -0.0043296 -0.33818 -0.11899 0.17896 0.16855 0.42379 0.71321 0.44861 -0.44018 0.12042 -0.4247 -0.46921 -0.34974 -0.29239 -0.66066 -0.6096 0.20208 0.098901 -0.063245 -0.23721 -0.36045 -0.0073104 -0.23481 0.024168 0.44571 0.061963 -0.062408 -0.14887 -0.062321 -0.21229 0.02782 -0.25983 -0.06946 0.73129 -0.082389 0.36871 0.68203 0.04326 -0.27977 0.27802 0.0091073 0.2998 -0.56865 -0.17113 -0.025422 -0.26843 -0.037414 -0.15455 0.12293 0.62393 0.10003 5.4491e-05 -0.021715 -0.6009 -0.053404 0.27282 0.10357 -0.29579 0.499 0.11669 -0.23401 -0.46092 -0.28403 0.26298 0.18152 -0.27565 0.0073672 -0.29764 -0.26087 -0.26242 -0.27904 0.15668 -0.045187 0.49761 0.1776 -0.35383 0.020976 0.33048 -0.21378 -0.38341 -0.073718 -0.26427 -0.11593 0.30238 -0.26045 -0.11282 0.80316 -0.463 -0.1591 0.17061 0.055586 -0.17952 0.014473 0.040377 0.78758 -0.41259 -0.15211 0.047707 0.4641 -0.2187 0.51913 -0.042005 0.43475 0.65079 0.083435 0.13611 0.042733 0.62833 0.19419 0.1416 0.12944 0.27876 0.45856 -0.50849 0.26582 -0.21684 0.53273 -0.7058 -0.16617 -0.35813 0.39178 0.069425 -0.21505 0.043447 -0.28793 -0.12302 0.28107 0.050151 -0.094218 0.87138 0.6282 0.20751 0.69759 0.42402 -0.38093 -0.52202 -0.2458 -0.051167 0.19312 -0.35142 0.32046 -0.29018 -0.52935 0.62371 -0.78757 -0.18251 -0.014709 0.72683 -0.39752 -0.13299 -0.072514 -0.80944 -0.035349 -0.24727 0.079761 -0.37165 -0.02534 0.73692 0.29667 0.073923 -0.30498 0.36551 0.1086 0.44981 0.039751 -0.25206 0.51097 -0.26582 -0.0091237 -0.61186 -0.049571 -0.20963 -0.37048 0.19334 -0.539 -0.48165 -0.10577 0.53971 -0.012421 -0.16027 0.2149 -0.38262 -0.13873 0.62682 -0.064272 -0.33038 0.82581 0.046741 -0.19415 -0.13593 0.21537 -0.5395 -0.22644 -0.24845 0.5865 0.47924 -0.48872 0.24316 0.3905 0.27035 0.21522 0.88909 0.2679 -0.19198 0.071684 0.2768 -0.73082 -0.37726 -0.329 0.64951 0.25629 0.16932 0.23613 -0.097833 -0.011763 -0.041784 -0.14871 -0.1151 0.35524 -1.8067 0.96647 -0.72723 -0.47912 -0.17133 0.49505 -0.45003 -0.20956 -0.39949 1.0322 0.071142 0.12207 -0.24882 -0.59631 -0.41417 0.005957 0.073027 0.037375 0.4168 0.16167 0.7079 0.54324 -0.021356 0.61883
jason -0.0033165 0.15623 -0.34174 0.58501 0.11561 -0.059472 -0.06821 0.056715 0.87014 0.47244 0.74013 -0.40279 -0.11411 -0.19064 -0.45766 0.041327 -0.45951 -0.053127 -0.2428 0.48784 -0.25717 -0.025208 -0.027346 -0.25504 0.29686 0.021115 -0.4003 -0.12868 -0.10291 0.21083 -0.062146 0.19514 0.34559 0.088893 -1.9519 -0.18706 0.6412 0.3664 0.14382 0.28074 -0.58817 -0.092157 0.17688 0.11093 0.33829 0.027549 -0.47278 0.050075 -0.22387 -0.022176 -0.27731 -0.27599 -0.48697 -0.20613 -0.52671 -0.30984 -0.093327 0.14943 -0.44532 -0.22937 0.068183 0.20582 -0.24576 0.0091271 0.12184 -0.21155 0.2079 0.1218 -0.025889 0.15554 0.10817 0.17165 -0.19303 0.24467 -0.45897 -0.42675 0.028109 -0.14998 0.30029 0.73051 0.3854 0.24874 -0.18309 0.11154 -0.14719 -0.3359 0.40873 0.19812 0.23334 -0.60519 0.43786 0.15068 -0.67904 -0.61288 -0.45231 -0.10209 -0.19105 -0.16825 -0.0046873 -0.42488 -0.35613 -0.18454 -0.41248 0.21527 -0.043582 -0.018459 0.41826 -0.0085547 -0.23815 0.2863 -0.56075 0.25109 0.19782 0.23341 0.24954 0.65409 -0.20705 -0.23194 0.2077 -0.17123 0.18278 -0.30612 -0.56065 -0.43187 0.194 -1.2534 -0.047428 -0.29648 0.3366 0.012001 -0.26728 -0.19635 -0.32309 -0.18818 0.1246 -0.10994 -0.40838 -0.47507 -0.015714 -0.20137 0.59271 0.27759 0.53177 -0.32835 -0.68857 0.46324 -0.35351 -0.18737 -0.1959 -0.26093 0.83876 -0.56468 -0.38164 -0.53299 0.60601 -0.33518 -0.47718 0.3274 -0.69986 -0.026529 0.95502 -0.88767 0.092365 -0.51151 -0.47527 0.092246 -0.032511 0.071983 0.17636 -0.11178 0.053866 -0.39921 -0.41556 -0.26526 -0.81324 0.25217 0.19173 -0.34664 -0.74685 -0.12284 -0.16866 0.48063 0.078751 -0.20662 -0.17335 0.06449 -0.51487 -0.50453 0.093217 0.33545 -0.43013 0.38343 0.25119 0.39639 0.18904 -0.2948 0.011794 -0.01664 0.11764 -0.30446 1.1039 -0.27064 -0.025864 -0.30252 0.14995 0.21803 -0.0056406 0.12437 -0.42201 -0.18257 0.22908 0.12502 0.099032 0.60472 0.38793 -0.42668 -0.22439 0.63615 -0.28095 -0.23582 -0.23345 0.38826 0.19677 0.078371 0.49106 0.49263 0.38169 0.30294 -0.15009 0.10706 -0.071332 -0.17957 0.088869 -0.39346 -0.48195 0.36018 0.18615 0.13576 0.058487 0.15529 0.048583 0.15839 -0.26481 0.45861 -0.19044 0.36054 0.22309 0.33646 -0.050534 0.3276 0.57956 0.06779 -0.055274 0.014006 0.54174 0.11773 0.5262 -0.79757 0.46725 -0.32534 -0.054794 0.057723 -0.012552 -0.1465 -0.59678 -0.22271 0.25336 -0.19816 -0.6268 0.047274 -0.2154 -0.51609 -0.14199 -0.38044 0.02197 -0.053287 -0.13656 0.058227 -0.36317 -0.29337 -0.38542 0.15965 -0.25956 0.13711 0.01998 0.52792 -0.12093 -0.0056138 0.4158 0.29567 0.4519 0.20631 -0.22102 -0.35094 -0.44651 -0.019841 0.38338 0.053359 -0.47577 0.66899
go 0.0073678 0.062532 -0.097432 0.28289 0.17907 0.15563 -0.060022 -0.18706 0.2522 -1.4366 0.18396 -0.41154 -0.24721 -0.28924 0.22733 0.093377 -0.13005 -0.23738 0.29734 0.39287 0.24602 0.13778 0.50431 -0.1964 -0.19608 0.03032 0.17494 0.15095 -0.09307 -0.081542 0.13745 0.26601 0.2611 -0.3294 -1.2504 0.03544 -0.090266 0.21137 -0.24463 -0.10571 -0.01611 -0.52772 -0.2952 -0.12618 -0.25194 -0.028682 0.60071 0.055699 -0.053144 0.094039 -0.073439 -0.13718 -0.019024 -0.19729 -0.24338 0.25736 -0.085362 0.27102 -0.37348 0.24632 0.17192 0.084874 -0.14347 0.32401 -0.1483 -0.39111 0.42266 -0.098124 0.181 -0.29615 0.2445 -0.1283 -0.15868 0.1979 0.40741 -0.12799 -0.043153 0.21591 -0.032259 -0.29703 -0.00095653 -0.16786 0.31423 -0.078273 -0.18001 0.048066 -0.21973 0.26676 0.0099761 -0.063569 -0.4102 0.29888 -0.19854 -0.52539 -0.11302 0.0051892 -0.4469 -0.23561 -0.03233 -0.31511 0.03661 -0.17631 0.015586 0.42921 -0.16415 -0.38384 0.20784 0.0077878 -0.29367 0.23924 -0.11907 -0.63959 -0.26493 -0.47856 0.18475 0.38149 0.0064192 0.22249 0.097842 0.0014406 -0.15089 -0.12222 0.47902 0.11561 0.28978 -0.068896 0.23197 0.18459 0.028452 -0.091216 0.22349 -0.021565 0.45498 -0.045181 0.17695 0.35284 -0.27162 -0.07745 -0.12806 0.14263 0.01598 -0.3426 0.098141 0.34564 -0.82403 -0.20586 -0.5892 0.074649 -0.19143 0.13221 -0.1821 0.31462 0.19957 -0.1471 0.51007 0.2033 0.016601 -0.19329 0.17482 -0.33639 -0.11093 -0.13831 -0.27985 -0.29409 -0.014147 0.10812 -0.051732 0.15521 -0.57967 -0.20208 -0.1543 0.20751 -0.28943 -0.27987 -0.055753 0.12983 -0.1229 0.3797 0.0015105 0.41673 0.23953 0.10821 0.35815 -0.070047 0.032625 0.013773 -0.036919 0.2918 0.089641 -0.064137 -0.18784 0.30177 0.16718 -0.18988 0.0071571 -0.069438 -0.05437 0.14985 0.23989 -0.4529 1.4546 0.074176 0.074816 0.30575 -0.052295 0.15627 -0.08918 -0.18525 -0.17758 -0.54896 -0.42954 -0.24233 0.020779 0.15411 -0.11812 0.24607 0.055915 0.36535 -0.11523 -0.15622 0.35684 -0.12473 -0.38559 -0.062307 -0.24517 -0.25779 0.13809 0.053493 -0.059727 -0.00011351 -0.079771 0.0055262 0.23754 -0.32479 0.3455 0.20645 0.077005 0.21931 0.2254 -0.20081 0.18906 -0.090647 0.32289 0.087974 -0.22403 -0.22992 -0.099955 0.33518 -0.45018 0.14216 0.233 0.0018925 -0.079469 0.21607 0.46225 -0.00294 -0.00094999 0.12698 -0.2604 -0.099456 0.26525 -0.69623 0.26156 -0.16642 -0.11391 -0.13276 -0.11896 -0.03545 -0.10894 0.18494 -0.061793 -0.072609 0.09478 -0.068701 -0.032825 -0.058233 -2.4498 -0.074533 0.23174 -0.20266 -0.057867 0.18134 -0.28264 0.073024 -0.398 0.3379 0.54213 0.052782 -0.2545 -0.32958 -0.15038 0.084015 -0.055967 -0.013686 0.19127 -0.42541 -0.13832 -0.32432 0.19611 0.29362
yes -0.078738 -0.2705 0.24003 0.15009 -0.011888 0.12078 -0.028722 -0.11705 -0.13718 -0.93109 0.062572 -0.18159 -0.17037 0.69128 0.68364 0.091954 -0.12845 -0.096215 0.10879 0.28109 0.065952 0.39065 -0.20654 0.097078 -0.41379 0.17872 0.36609 -0.68413 0.14613 -0.5447 -0.015036 0.061208 -0.4487 -0.54186 -1.034 0.21633 -0.048198 -0.39248 -0.07371 -0.067909 -0.0098792 -0.29731 0.036155 -0.1683 -0.088234 -0.38365 -0.016912 -0.054445 0.3017 -0.29855 -0.25539 0.22513 0.055985 0.019122 -0.27583 0.37534 0.1454 0.16541 0.31833 0.024921 0.39454 -0.11849 -0.4503 0.38842 -0.35975 0.086012 0.34749 0.17441 0.058218 -0.22805 0.085142 -0.32463 -0.22028 0.75353 0.28357 0.044406 0.27609 0.43541 -0.014318 -0.021678 -0.074315 0.19479 0.66483 -0.064115 -0.042135 0.054515 -0.17582 0.47558 -0.3255 -0.18467 -0.12918 -0.24837 -0.66548 -0.48732 -0.016897 0.41402 -0.51517 -0.072724 0.0022452 -0.25304 0.083897 -0.048288 0.25701 0.039519 -0.19747 0.14512 -0.066993 -0.0012425 -0.074627 -0.16848 0.553 -0.15125 0.1732 -0.25019 0.16228 -0.17675 -0.25642 0.048734 -0.081244 -0.34444 -0.16555 -0.062432 0.37374 0.5414 -0.043157 -0.2593 0.48863 0.14578 -0.32836 -0.35479 0.038759 -0.78055 -0.32582 0.14989 0.074045 0.25398 0.10131 0.2698 0.49345 -0.065763 -0.15388 -0.0055944 0.22438 -0.048981 -0.33339 -0.2014 0.060762 -0.06245 0.092822 -0.10662 -0.61261 -0.098221 0.014772 -0.20569 0.052585 0.32839 -0.096253 0.15036 -0.1201 -0.13689 -0.12845 0.11486 -0.22724 0.32041 -0.10954 0.48485 0.018073 0.22566 -0.04427 0.25978 0.18066 0.11995 -0.39762 0.10261 0.17891 -0.0010668 -0.14819 0.1255 0.68138 0.26064 0.26969 -0.29868 0.28564 -0.38722 -0.24135 -0.23439 0.055052 -0.10486 0.08988 0.23504 -0.15534 0.069612 0.50378 0.02976 -0.12942 0.043713 -0.047923 0.1317 -0.22473 -0.17357 1.0041 0.16811 0.041871 0.1339 -0.049396 -0.087089 0.61045 0.045454 -0.039878 -0.28707 -0.57562 0.18702 0.10578 0.069471 -0.29461 0.022814 0.29631 0.22556 0.024921 -0.20223 0.15036 0.43561 0.22741 0.16331 0.23901 0.011686 -0.050575 -0.0099045 0.032094 -0.29889 0.065741 -0.13732 0.095524 -0.38693 -0.24999 -0.12608 -0.070817 -0.21522 -0.024861 -0.1994 0.014206 0.2914 0.41541 0.34027 0.23524 -0.43726 -0.037017 0.024679 0.10709 -0.34957 0.01931 -0.24616 -0.19832 0.30868 0.18562 -0.070966 0.23047 -0.2042 -0.080133 -0.36948 0.19432 -0.5921 -0.24471 0.13941 -0.13089 0.12324 0.24795 -0.24443 0.032858 0.17 -0.00020029 -0.3813 -0.21527 -0.62653 -0.2023 0.064706 -1.3336 0.17958 0.3332 -0.16315 0.22286 0.012816 -0.038528 -0.4493 0.11898 0.36266 -0.080199 -0.41211 -0.18818 -0.14372 -0.19497 -0.025099 -0.10393 0.17675 0.096403 -0.5979 -0.30393 -0.13584 -0.22122 0.42986
antoine -0.018317 -0.043012 0.047758 -0.23032 -0.56071 0.41618 -0.24036 -0.47511 0.56509 0.54973 -0.021807 -0.40769 -0.31939 0.040707 0.28389 0.1809 -0.021755 0.52948 0.28178 0.11345 0.066434 0.30828 0.22102 -0.42194 0.26436 0.10986 0.21251 -0.51542 0.093067 0.094122 -0.50158 0.10181 0.26442 0.12086 -0.5703 -0.23323 0.3043 0.52488 0.62654 -0.55606 -0.068648 0.050792 0.7469 -0.19634 -0.35872 0.19385 0.14354 0.345 -0.44739 -0.15671 0.70359 -0.19052 0.085126 -0.24214 -0.20464 -0.68111 0.12969 0.55686 0.36708 -0.3446 0.063462 -0.063337 -0.32071 0.37119 -0.11705 -0.42629 -0.23404 -0.098909 -0.31931 -0.58951 0.18508 -0.37082 -0.11881 0.038156 -0.17256 -0.25551 0.53536 -0.11571 -0.89996 0.14251 0.3882 0.27418 0.77441 0.24907 -0.22894 0.060889 0.75845 0.10795 -0.13181 -0.9541 -0.089608 -0.050791 -0.26186 -0.17777 -0.11725 0.096303 0.26486 0.013464 0.368 0.59007 -0.4735 0.37114 0.44993 0.34888 0.14051 -0.54619 -0.1296 -0.32462 -0.0048978 0.63509 -0.57586 -0.30553 -0.2302 -0.4251 -0.41284 -0.23091 -0.12262 -0.027189 0.78796 -0.06086 0.22832 0.69831 0.079319 -0.38825 0.27759 -0.91924 -0.206 0.096681 -0.045431 0.058333 0.049428 -0.22967 -0.60206 0.14569 0.15675 -0.035872 0.24687 -0.88541 -0.22507 -0.25529 -0.37623 0.40497 0.50358 0.49703 -0.11714 -0.25039 -0.67531 -0.0092928 -0.63046 0.51361 0.33005 0.39717 -0.87833 -0.59783 0.079274 -0.31998 0.0019282 0.20959 -0.13052 -0.59427 -0.57679 -0.25548 0.11623 -0.43189 -0.29159 -0.25522 0.27337 -0.041749 -0.19205 0.37365 -0.10385 -0.065758 -0.015085 -0.43052 -0.25121 0.14599 -0.11949 0.070125 -0.75435 -0.10979 -0.26626 0.39695 -0.20803 0.3099 0.074393 0.13738 -0.66864 -0.051481 -0.46426 0.64101 0.42854 -0.42001 0.11737 0.41168 -0.45148 -0.71081 0.20364 0.42141 0.082123 -0.25375 0.33113 -0.64138 -0.31855 -0.69328 0.7073 -0.55282 -0.64535 0.29199 0.13698 0.1682 0.25883 -0.08864 0.22816 -0.43607 0.22835 0.4379 0.75703 0.069135 -0.19891 -0.4246 -0.19382 0.040876 0.053929 0.027563 0.13455 0.66862 0.65236 0.24163 0.16542 0.19851 -0.32516 0.42903 0.31438 -0.053246 -0.020556 -0.31567 0.01971 -0.035023 0.14725 0.010906 0.27013 -0.025363 0.016652 -0.50992 0.82359 0.32172 -0.59933 -0.045968 -0.42221 -0.022377 0.15246 0.19163 0.38267 0.43415 0.52775 0.23352 -0.49474 0.13889 -0.21874 -0.067891 -0.3889 -0.062845 -0.69179 0.76316 0.0055002 -0.035695 -0.27385 0.75103 -0.11313 -0.45586 -0.20464 -0.43715 0.046135 -0.10901 0.7884 0.61005 -0.26703 -0.70561 -0.94279 0.29058 0.61146 0.63921 0.064779 0.0053966 0.56533 0.56866 0.26755 0.060186 -0.048095 -0.29618 0.3814 -0.068018 0.59571 -0.033977 0.10541 -0.22972 0.17985 0.11746 -0.73849 -0.21371
milk 0.15806 0.78823 -0.058905 -0.20678 -0.074132 -0.33477 -0.016551 0.12452 -0.047036 -0.97457 -0.33828 -1.3542 -0.11854 -0.089787 -0.22414 0.022634 -0.023969 -0.23535 -0.45862 0.46491 -0.059337 0.0012327 0.19515 0.21275 -0.63992 -0.28039 -0.51247 -0.1214 -0.42272 -0.37518 -1.288 0.45021 -0.21515 -0.08137 -0.16828 1.074 0.58639 0.25003 0.28147 -0.085284 -0.67273 -0.23001 0.54699 -0.32888 -0.074433 -0.07082 -0.22452 0.2079 0.11399 0.28248 0.23952 0.57562 0.22812 0.021657 0.0079675 0.44137 0.3181 0.50663 -0.40726 -0.29841 0.20155 0.34903 0.1304 -0.51716 -0.0049418 -0.06024 -0.18689 -0.40407 -0.47559 0.097396 0.16585 -0.036926 -0.1344 -0.30282 -0.0013097 -0.19842 0.35728 -0.43209 -0.33998 0.22066 -0.099444 0.073269 -0.29268 -0.0057493 0.15147 -0.2013 0.25232 -0.17282 -0.29826 -0.38065 0.18449 -0.077779 -0.13652 0.20939 -0.40512 0.24652 0.24751 -0.024102 -0.5045 0.44761 0.41094 0.18088 0.027851 -0.60478 -0.10147 -0.0033811 -0.27389 -0.35815 -0.083175 0.72446 0.058251 0.22998 -0.5897 -0.10717 -0.18675 0.59625 0.26544 0.57909 -0.045572 -0.69936 -0.80876 0.25663 0.45246 0.60495 0.083474 -0.46886 0.39125 0.17846 -0.22457 -0.020476 0.19465 -0.047595 0.13402 1.0053 -0.15997 0.11009 -0.3371 0.0021592 -0.034609 0.76006 0.75005 0.25811 -0.17982 -0.4456 -0.52301 -0.072072 -0.094335 0.015796 0.87544 -0.28946 -0.74673 0.32439 0.35591 0.42599 -0.11396 -0.2461 -0.35962 -0.48917 0.039692 -0.49278 0.16333 -0.011978 -0.087508 -0.5124 -0.04474 -0.086761 -0.011492 -0.40896 -0.32345 -0.11145 0.87065 0.70987 -0.32549 0.44717 -0.26281 -0.54118 0.13591 -0.73972 0.32516 -0.29675 -0.44382 0.54376 -0.0064262 -0.21709 0.081106 -0.66128 0.94855 -0.42462 0.62317 -0.52222 0.36017 1.1902 -0.27542 -0.020097 -0.52672 -0.35121 -0.14164 -0.15518 0.0015393 0.55736 0.39889 -0.44312 0.67388 0.28496 -0.17588 -0.13456 0.13234 0.34574 -0.64684 -0.17516 0.083465 -0.099167 -0.38764 0.17204 -0.53715 -0.5995 0.12378 -0.73264 0.3927 0.036987 0.11212 0.60065 0.041369 -0.77749 -0.1217 -0.11048 0.059128 0.33514 0.29354 0.18817 0.16317 -0.0087107 -0.64055 -0.067207 0.92099 0.45796 0.33639 0.079875 -0.47133 -0.58865 -0.82154 -0.29975 -0.26788 -0.11259 -1.327 0.022293 0.44528 0.41763 -0.022009 -0.1602 0.34353 -0.45143 0.20029 0.55729 -0.17221 0.062279 -0.3955 0.060174 0.65188 -0.12977 -0.36844 -0.20155 0.13 -0.48708 0.34193 -0.10388 0.23186 -0.55462 0.079155 0.06605 -0.1735 0.33602 -0.35162 -0.00097912 0.18319 0.34191 -1.2816 -0.38447 -0.36375 -0.24663 -0.4165 -0.29712 0.45798 -0.16561 -0.20555 1.2929 0.59393 -0.4813 0.3103 0.72366 -0.39965 0.020923 0.22832 0.043248 0.12959 -0.024811 0.29741 -0.91331 -0.23362 0.24119
apple -0.20842 -0.019668 0.063981 -0.71403 -0.21181 -0.59283 -0.15316 0.044217 0.63289 -0.84821 -0.21129 -0.19763 0.19029 -0.56226 0.27126 0.23782 -0.5189 -0.24518 0.035243 0.096833 0.24898 0.71279 0.038279 -0.10514 -0.4779 -0.39515 -0.27194 -0.44428 0.06113 -0.2318 -0.35901 -0.18239 0.035507 -0.087719 -1.0816 -0.42521 0.003224 -0.45991 -0.043462 -0.39031 0.519 0.21139 -0.25527 1.1805 -0.19041 -0.12156 0.034186 -0.062316 0.14421 -0.53366 0.47425 -0.4471 0.58047 0.43578 0.1321 -0.095712 -0.37182 -0.013837 0.20601 -0.10099 0.10685 -0.33723 0.10986 0.34796 -0.099839 0.36942 -0.52917 0.12407 -0.46127 -0.38483 -0.10114 -0.17634 0.37574 0.16377 -0.2198 -0.26841 0.84706 -0.35619 -0.083992 -0.20276 -0.56542 0.19112 -0.14134 -0.7812 0.69188 -0.083628 -0.54293 0.16437 0.037606 -0.68896 -0.68711 -0.13367 -0.4779 0.20125 0.085122 -0.063865 -0.17104 -0.32432 -0.17623 -0.514 -0.50289 0.23204 -0.11324 -1.064 -0.035359 -0.5068 -0.27118 -0.16621 -0.63016 0.054252 -0.048178 0.29282 -0.030666 -0.24645 -0.27084 -0.42563 -0.39171 0.18428 -0.017772 -0.35334 -0.49075 -0.90782 0.13872 -0.76521 -0.46318 -0.32124 -0.086228 1.0448 -0.39919 0.69478 -0.10377 0.86715 0.22742 0.4384 0.085767 -0.22846 0.4309 0.064187 -0.027926 -0.093056 0.65188 0.59143 -0.3376 -0.37732 0.0052212 1.1193 -0.23845 -0.16029 0.42877 -0.16228 -0.12202 -0.1061 0.015761 0.022745 -0.17734 -0.091711 -0.29158 0.19034 -0.35168 0.27563 -0.20577 0.11472 -0.34126 -0.0065915 0.14896 -0.026762 0.0019373 0.53279 -0.76088 0.063085 -0.72089 -0.04128 -0.96164 0.020769 0.16123 -0.34342 0.69713 -0.16018 -0.11701 -0.070239 -0.30774 0.39741 0.39994 -0.678 0.57684 -0.48099 0.59317 -0.42262 0.28613 -0.26203 0.052727 0.61659 -0.36801 -0.28429 -0.40054 -0.30055 -0.27444 -0.045729 -0.56105 0.24176 0.86631 -0.83715 0.13562 0.26196 -0.43055 0.34558 0.059441 0.61845 0.11837 -0.019168 0.47697 -0.32465 -0.15463 -0.23556 -0.64263 -0.092156 -0.19622 0.40666 0.18009 0.094309 0.046917 0.26369 -0.50727 0.37491 -0.66773 0.35095 -0.033835 0.30534 0.23166 0.023526 -0.68365 0.26078 -0.22526 -0.2656 0.59967 0.2598 0.36248 0.15564 -0.45549 0.11153 -0.33287 0.081364 -0.36989 -0.25543 -1.1628 -0.14622 -0.032971 -0.55619 0.47717 -0.29021 0.42688 1.2397 -0.81391 0.21084 -0.25426 -0.08684 -0.078412 0.26035 0.3281 -0.23777 0.05138 -0.030247 -0.15669 0.057147 0.33902 0.12795 -0.21468 -0.75208 0.41422 0.0062719 -0.52904 0.92193 -0.42179 -0.69638 0.074115 0.19071 -1.2031 -0.081333 -0.4914 -0.22159 -0.29876 0.30094 0.018634 0.18786 -0.45429 -0.29296 0.3695 -0.24218 -0.11803 0.071775 0.44026 -0.59978 0.45354 0.17854 -0.17155 0.018811 -0.62354 -0.014163 0.16799 -0.064392
grabbed -0.046207 0.076552 -0.055507 -0.13055 0.40654 -0.14313 -0.16778 -0.24674 0.35358 0.32339 0.16568 0.1429 0.082227 -0.087229 -0.17172 0.062282 -0.019479 0.10639 -0.43154 0.043634 -0.07036 -0.057084 -0.026694 -1.0267 -0.049644 -0.27112 -0.34925 -0.075845 0.63075 -0.37381 -0.10656 -0.43396 0.48819 -0.015701 -1.5656 -0.21171 0.24487 0.47018 0.018782 0.22587 -0.070358 -0.49375 0.15172 -0.18938 0.32209 0.37975 0.12715 -0.87154 0.17735 0.42677 -0.16753 -0.31064 -0.032038 -0.13479 -0.18097 0.15841 0.46313 -0.40249 -0.26902 -0.2738 -0.1838 0.45585 -0.32332 0.35952 -0.063966 -0.28299 -0.49307 -0.028597 0.23089 -0.73749 -0.071991 -0.072755 -0.058993 0.12998 0.022284 -0.079533 -0.23252 -0.44647 -0.11483 0.0094247 0.71157 0.077374 0.53748 0.12478 -0.14887 0.014151 -0.21024 -0.21926 -0.043656 -0.36376 0.29378 -0.2585 -0.23862 0.21803 -0.48637 -0.18129 -0.49663 0.008399 0.148 -0.019799 0.16048 -0.079673 -0.099894 -0.070448 0.43993 -0.52155 0.02869 0.011916 -0.31743 0.072485 -0.27507 0.3776 0.13131 -0.33619 0.053975 0.53618 -0.40623 0.1142 0.57269 -0.26575 0.067641 -0.44813 0.2034 -0.16873 -0.4723 0.067905 -0.48424 -0.41836 0.071292 -0.13778 0.12234 -0.49369 0.12487 0.25419 -0.21282 0.67118 0.71705 -0.34178 0.17352 0.28223 -0.39367 0.30493 0.19227 0.041857 -0.72277 0.21611 0.43659 0.058817 0.20473 -0.28665 0.4793 0.67104 0.23895 -0.27162 -0.4337 0.067845 -0.16733 -0.090484 -0.36079 -0.066444 0.19146 -0.44379 0.22436 0.12443 0.29917 -0.27545 0.20443 0.25584 0.13096 -0.14443 -0.55095 -0.37144 -0.010992 -0.032384 -0.053761 -0.22983 0.11739 0.67967 -0.34373 0.095469 -0.23502 -0.18222 0.38429 -0.13329 -0.26727 0.15116 0.26592 0.2546 -0.013949 0.57858 0.52657 -0.24294 -0.24452 -0.05083 0.2281 0.036792 -0.36775 -0.33806 -0.005325 0.15328 1.2051 -0.29609 -0.21938 -0.090822 -0.044703 -0.16388 -0.14487 0.16644 -0.55759 0.54686 -0.11587 0.23756 0.1243 0.52082 0.9812 -0.28956 -0.075256 -0.34472 -0.40316 0.11287 0.062311 0.21905 0.42152 -0.14143 0.31141 0.21554 -0.093541 -0.4758 -0.045448 0.35845 0.14383 0.13698 0.0062491 0.42088 -0.035144 0.46862 -0.15194 0.11434 -0.21466 -0.18448 0.5111 0.24161 -0.71153 0.089519 0.30436 -0.50304 0.35105 0.24391 -0.19001 -0.18451 -0.16325 -0.52612 0.32988 -0.58808 0.66707 0.22617 0.14654 -0.165 -0.27041 -0.14853 -0.070717 -0.49417 0.14168 0.31199 -0.58473 -0.23343 -0.29966 -0.11222 -0.56176 0.25938 -0.18531 -0.31533 -0.28491 0.13961 0.11757 -0.8299 -0.90712 -0.23407 -0.77771 0.086997 -0.41788 0.3041 0.50343 -0.0064986 0.093148 -0.15545 0.085164 -0.25245 0.30577 0.44798 0.20582 -0.20073 0.053828 -0.083784 0.36361 0.40512 0.26904 -0.48638 -0.26767 -0.028371
fit -0.50879 0.19827 -0.3001 -0.16045 0.35464 0.37825 0.0765 0.14973 -0.085921 -1.4042 0.23786 -0.093799 0.022755 0.25806 -0.32022 0.042152 0.3051 -0.085492 0.28566 -0.55277 0.24069 0.003919 0.2738 0.12452 -0.38876 -0.12191 -0.2256 0.10316 0.42175 -0.0092566 0.29124 0.40263 0.05019 -0.12108 -1.1334 0.49635 0.14998 0.010607 -0.15082 0.61312 -0.25181 -0.36876 -0.17 -0.41858 0.053854 0.17482 -0.21485 0.041555 0.23563 0.22461 -0.0051995 -0.45482 -0.16136 -0.42604 -0.18533 0.033534 0.14337 -0.4606 -0.12311 0.06169 0.069961 -0.098329 -0.26062 0.051877 -0.37915 0.12719 -0.098708 -0.21243 -0.11329 0.41191 -0.078346 -0.20167 0.0024661 0.076886 0.33225 -0.37607 -0.056166 0.63898 -0.0049024 0.014184 -0.13584 0.18097 -0.24033 -0.11231 -0.22033 -0.034002 -0.10573 -0.040048 -0.1231 0.34908 -0.34512 0.49276 -0.32064 -0.5438 -0.063036 -0.08097 0.41375 0.27012 -0.28843 -0.71713 -0.5209 0.25521 0.004976 -0.080223 0.02097 0.48528 0.29124 0.43953 -0.045493 0.35418 0.047973 0.35889 0.13353 -0.65658 -0.33767 0.062355 -0.2083 -0.14064 -0.17211 -0.10782 -0.053422 -0.0012493 0.33661 0.35949 -0.068168 0.28498 -0.27162 0.38301 -0.10144 0.15004 0.69849 -0.081401 -0.33983 0.14017 0.27914 -0.23598 -0.32188 -0.57356 -0.10035 -0.14998 -0.0060116 -0.054874 0.0367 0.10396 -0.17992 0.31897 -0.10993 0.058855 -0.24862 0.31759 -0.34829 -0.1495 0.14036 -0.67024 0.06911 -0.56943 -0.32295 -0.10614 0.323 0.32746 0.51988 0.10931 -0.18641 -0.15398 0.3838 -0.30203 -0.15902 0.2655 0.02003 0.21949 0.21504 0.50601 -0.2509 0.1489 -0.11215 -0.014636 -0.19436 0.30294 0.033613 -0.2916 0.43365 0.038792 0.89354 -0.20031 0.17006 -0.098945 0.028511 0.20584 0.2635 0.51996 0.019065 0.32166 -0.34325 0.44809 -0.3864 -0.34975 -0.2439 -0.028947 -0.096565 -0.23851 0.70975 -0.15901 0.34669 0.11151 -0.045857 -0.16616 0.10106 0.14111 -0.4596 -0.87194 0.26666 -0.38044 0.18152 0.24019 0.39142 0.028018 0.18978 -0.33678 0.19711 -0.24024 -0.41018 0.31631 -0.17874 0.19899 -0.065101 0.59469 0.27653 0.31719 -0.25055 0.18898 0.32637 0.011516 0.22663 -0.24629 0.22261 0.064552 -0.32647 0.053514 -0.6055 0.50762 0.7296 -0.43491 0.10541 0.38493 -0.4846 0.044416 0.048157 0.57079 0.0037377 0.20703 0.22719 0.08892 -0.15851 0.19023 0.075432 0.26382 0.048903 -0.28374 0.22053 0.14935 0.30095 -0.10512 -0.00059694 0.13741 -0.20563 0.012488 -0.085703 -0.17732 -0.051813 0.16499 0.15107 -0.36229 0.19665 -0.090703 -0.10811 0.12889 -1.2634 0.35842 0.055011 -0.28942 0.26732 -0.27107 0.21144 0.65014 -0.10951 -0.078144 -0.27592 0.24766 -0.49201 -0.35385 0.74535 -0.14 0.21359 -0.089847 0.21275 -0.14195 -0.054458 0.16709 0.15346 -0.031977
brian 0.51011 -0.17088 -0.33469 0.071019 0.29698 0.062398 -0.039751 0.074622 -0.33494 0.3044 0.24743 -0.35135 -0.44545 -0.18472 -0.49552 0.26418 -0.38347 -0.10576 0.21239 0.44608 -0.1245 0.36269 -0.17649 -0.034512 0.32171 0.12862 0.24097 -0.02541 -0.064458 -0.40199 -0.45147 -0.25069 0.26809 -0.045598 -1.5802 -0.14125 0.5331 0.55547 0.15146 0.029437 -0.087299 0.10234 0.66576 0.48379 -0.14345 0.076252 -0.40929 -0.26415 0.0043359 0.17206 -0.23239 0.085678 -0.0245 0.45492 -0.10726 0.64931 0.66062 0.32272 0.050098 -0.34802 -0.032089 0.002668 -0.33535 0.81228 0.062673 -0.4273 0.090446 -0.26053 0.10867 0.095713 -0.29178 0.13116 -0.22131 0.52673 -0.68676 0.32672 -0.038386 0.23016 0.20494 0.35968 0.033329 0.2425 -0.069975 -0.25441 -0.13855 0.64928 0.52249 0.36718 -0.065888 -0.65436 0.0087594 0.6242 -0.55005 -0.64093 0.144 -0.29827 0.38473 -0.25615 0.42048 0.08252 0.20823 -0.25267 0.11831 0.1171 -0.17678 -0.20821 0.51983 0.30502 -0.17404 0.22077 -0.056327 -0.091349 0.44473 0.31108 -0.12822 -0.093301 -0.77091 -0.33772 -0.34466 -0.30926 -0.087979 -0.45297 -0.73771 -0.25572 0.017389 -0.28385 0.52895 -0.58529 0.11758 -0.38214 0.074613 0.079412 0.39855 -0.15865 0.56487 0.0011732 0.53765 -0.4202 0.22842 0.090648 -0.46361 -0.54084 0.7136 -0.21052 -0.28513 0.055379 0.053119 0.10696 -0.31643 -0.12763 1.1587 -0.25835 -0.19239 -0.043255 0.19607 -0.066197 -0.37649 -0.25739 -0.07675 0.27201 0.60953 -0.14109 0.73003 -0.23063 -0.084901 0.74887 0.47901 0.00044829 -0.18823 0.38469 0.0033378 -0.17275 -0.46171 0.24857 0.15347 0.59597 -0.50168 0.31656 -0.16014 0.41002 0.16302 0.047348 0.46225 0.25737 -0.61299 -0.33331 -0.52211 -0.68361 0.13189 -0.020701 0.0044626 0.38726 0.50807 0.087825 -0.6021 -0.0035077 0.34248 0.45096 0.038229 -0.27788 0.97874 -0.077867 0.0034638 0.21026 0.52953 0.20086 0.46788 0.50612 -0.50241 -0.41131 0.35392 -0.050103 0.1528 0.10449 0.25949 -0.043838 0.043147 -0.031641 -0.19491 -0.71624 -0.0009809 0.37421 -0.22919 -0.020732 0.49496 0.00049655 0.040704 0.1703 0.29334 -0.16629 0.3076 0.19165 0.70275 -0.21758 -0.52647 0.35125 0.14256 0.81167 0.12826 -0.24978 -0.20557 0.17695 0.34078 -0.0039189 -0.32281 0.041282 -0.5044 -0.41081 -0.035073 0.083565 0.13896 -0.38338 0.17613 0.19191 0.84114 -0.4177 0.26423 -0.069042 -0.10099 -0.31803 -0.23801 -0.14066 0.26508 0.068944 -0.93287 -0.1902 0.33131 0.55636 -0.54755 0.38939 -0.46888 -0.13534 0.12003 0.20672 0.34363 0.11133 -0.34332 0.083257 -0.10242 0.082221 0.16232 0.081672 0.27921 0.10774 0.36403 -0.08108 -0.064863 -0.56904 -0.45119 -0.026342 0.79333 0.13946 -0.29679 0.42448 0.11428 0.51072 0.20962 -0.039092 -0.38872 0.20921
emily -1.0931 -0.15504 -0.53202 0.13893 0.10909 0.11326 -0.96105 -0.27999 0.037389 0.37228 0.33485 0.18525 0.52482 -0.061689 -0.008638 0.15902 0.17463 -0.44639 0.026886 0.25932 0.052865 0.10645 -0.30377 -0.25939 0.061491 0.59512 -0.21156 0.40984 0.2541 0.3869 -0.84996 0.53794 -0.39766 0.64019 -0.78618 0.5275 0.38337 0.41797 0.018858 -0.77032 0.14048 -0.0021763 0.7335 0.080211 0.2023 -0.15734 0.32487 0.19014 0.14395 0.24887 -0.14998 0.0482 0.14129 -0.17324 -0.35101 -0.30395 -0.47138 -0.11508 -0.23415 -0.072158 0.62124 0.35084 0.31531 0.40507 -0.28434 -0.61162 0.18315 0.00058458 -0.024151 -0.19467 0.058811 -0.5089 0.35697 -0.034048 -0.008367 -0.43694 -0.25873 -0.50827 -0.34101 0.13888 -0.39736 0.261 0.04526 -0.13579 -0.31296 0.41897 0.31992 0.79855 0.29964 -0.3253 -0.13703 0.26589 0.54897 -0.35328 -0.18515 0.03478 -0.3194 -0.5338 0.15518 0.12419 -0.48756 -0.35028 -0.41885 0.15622 -0.083718 0.21091 0.15642 -0.12865 0.33394 -0.056227 -0.067466 0.056279 0.44438 0.88418 0.34828 0.13062 -0.058188 0.20754 0.24431 -0.27568 -0.39476 0.34702 -0.63967 -0.093506 0.4245 -0.24986 -0.24663 -0.27447 0.11976 -0.4352 -0.17009 0.44062 -0.074201 -0.23087 -0.38706 0.29251 -0.27145 0.41799 -0.41048 -0.20391 0.20982 0.51196 -0.28003 0.085142 -0.16615 -0.17223 0.13985 0.13718 -0.12671 0.083601 0.41315 0.46203 -0.1092 0.17505 -0.12972 0.23583 -0.46029 -0.23268 0.082271 -0.0095595 0.364 -0.17768 0.68221 -0.40521 -0.54479 0.39775 -0.43792 0.06816 -0.1598 0.36508 -0.26201 -0.040394 -0.31869 0.16323 0.22202 -0.076867 0.29718 -0.010812 0.26448 -0.10892 -0.14946 -0.023615 0.51409 -0.13158 0.33115 -0.040931 -0.62348 -0.064614 -0.42241 -0.079293 -0.16729 -0.18327 -0.44266 0.14853 -0.60223 0.75128 0.28451 -0.020853 -0.26296 -0.73771 0.48354 0.16048 -0.14126 0.066287 -0.34728 -0.064663 0.53291 0.1047 0.68747 -0.21111 0.05634 0.22686 0.28507 -0.0016822 0.15467 -0.47778 0.18422 0.31917 0.1247 -0.24555 0.23914 -0.062534 -0.13876 0.38401 -0.27234 0.8756 0.44066 -0.59485 -0.14155 -0.18186 -0.11887 -0.29846 -0.12121 -0.38477 -0.91193 0.26598 -0.064422 0.70484 0.28497 -0.44542 0.02306 -0.29058 -0.63054 -0.020328 0.0015406 0.22922 -0.16832 -0.10523 -0.0023316 0.39232 -0.20811 -0.15166 -0.54863 0.32129 0.12128 -0.37924 0.48896 -0.37147 0.56716 -0.042937 -0.58979 -0.011341 -0.77924 -0.15973 -0.096459 0.13543 0.10591 -0.14697 -0.62673 0.55111 -0.3576 -0.046523 0.2762 -0.22648 -0.39604 -0.07845 -0.26169 -0.2942 -0.3474 0.12916 0.13888 0.12622 -0.19928 -0.70056 -0.11734 0.61198 0.36894 0.18644 -0.12764 0.14534 0.10918 -0.21886 0.3545 -0.28654 -0.49649 -0.35845 -0.53442 0.079544 0.61638 0.35651
swan 0.091717 -0.23404 0.038527 -0.11622 -0.31235 -0.016663 0.12777 -0.10573 -0.291 -0.17525 0.016492 -0.433 -0.31259 0.54526 0.29009 0.54626 0.22604 -0.17811 0.43704 0.14185 -0.26757 0.37035 0.37794 0.67853 0.19808 0.11033 -0.30127 -0.138 -0.11163 0.40333 0.38387 -0.43814 -0.31194 0.11634 -0.076023 0.49297 0.21727 0.50495 0.16065 -0.34994 -0.51483 0.023411 -0.45492 0.16193 0.23235 -0.11661 0.13192 0.055446 -0.22589 -0.14431 -0.093303 0.29176 0.29883 0.20963 -0.014236 0.13655 0.04156 0.031169 -0.2116 0.18345 0.17543 -0.0018334 0.092836 -0.57826 0.054171 -0.34799 0.06531 0.0019528 0.064067 0.52416 -0.24453 0.3557 -0.079852 -0.34501 -0.5674 -0.11716 0.077678 -0.056148 0.23578 -0.0096342 0.074781 0.61102 0.38568 -0.55582 0.71816 -0.1669 0.021227 0.28576 -0.33251 -0.32643 0.26899 -0.35748 0.29926 0.2764 0.09524 0.052179 0.74374 -0.1709 -0.5552 -0.30589 0.33126 0.083594 -0.42242 -0.39864 -0.097775 0.32785 -0.19068 -0.48401 0.18001 0.062339 0.28866 0.36246 -0.2062 0.1483 0.25691 -0.64992 0.2264 0.288 -0.46853 -0.27364 -0.12707 0.17585 -0.33109 0.22415 0.51815 -0.18134 -0.61657 0.12784 -0.074831 -0.79627 0.3063 0.3488 0.21086 0.11927 -0.13241 -0.21192 0.21986 -0.22956 0.33478 0.085395 -0.023707 0.19537 0.06892 -0.24611 -0.47966 -0.4369 0.59446 0.17236 -0.076019 -0.092674 0.43885 0.40303 -0.31641 -0.77829 0.12626 -0.25054 0.085917 -0.31196 0.22345 -0.29966 -0.10278 -0.60024 -0.41524 -0.1986 -0.56787 0.086711 -0.41993 0.6847 -0.016721 0.11436 -0.57827 0.40599 0.4076 0.55009 -0.04422 -0.25583 0.08684 0.41569 0.035239 -0.14689 -0.16895 0.34489 0.28877 0.18677 0.35066 -0.34654 -0.1495 -0.081873 0.16107 0.31872 -0.53119 0.085892 -0.38816 -0.012344 0.35265 0.28953 0.69272 -0.27079 -0.67554 0.11011 1.0344 0.45605 -0.78812 -0.34722 -0.24557 0.067844 0.20704 -0.26734 0.50754 0.018658 0.11247 0.12911 0.16471 -0.23381 0.33871 0.21885 0.18496 -0.20405 -0.38653 -0.78602 -0.27513 -0.15418 0.062115 -0.058809 0.19189 -0.083444 -0.16685 -0.84055 -0.11209 0.32622 0.091456 0.15191 -0.51697 -0.34078 -0.089538 0.78732 -0.079836 0.033551 0.060791 -0.15522 -0.19459 0.10016 0.12643 0.56687 0.14548 0.37726 0.3807 -0.153 -0.0036523 0.40147 -0.27215 0.58422 0.19811 0.30916 0.45027 -0.23387 0.12484 0.55145 0.62381 -0.33745 0.035603 0.10869 -0.35499 0.043767 -0.45008 0.1621 -0.0073731 -0.29632 -0.70236 0.83334 0.12345 -0.27932 0.04854 -0.26469 0.56611 0.06581 -0.095036 -0.045042 -0.061844 -0.81758 -0.17309 0.73807 -0.90646 -0.5207 -0.54377 -0.041968 0.20869 -0.090354 -0.58916 -0.17541 -0.30665 0.084458 0.46445 0.69238 -0.21566 -0.27796 0.050744 0.16542 -0.20122 0.13656
than -0.59524 0.32358 -0.0453 -0.012025 -0.042876 0.19572 0.25458 0.29147 0.17152 -2.0158 0.022848 0.33548 -0.071216 0.50389 -0.01183 -0.20115 -0.44108 0.12061 -0.0057938 -0.045433 -0.081495 0.25979 0.48275 0.31389 0.059267 0.26358 -0.20541 -0.22926 0.29444 0.17992 -0.14889 0.26666 -0.32117 -0.41719 -0.91961 -0.26667 0.32125 -0.24154 0.38626 -0.20216 0.19955 0.07291 -0.07258 -0.34334 -0.016263 -0.16963 0.041388 0.10401 0.11716 0.05542 0.057767 -0.44253 0.17709 0.17911 0.021123 0.11308 0.04947 0.099329 0.085543 -0.49483 -0.20986 -0.24143 0.57308 -0.72423 0.27228 -0.43334 -0.096399 0.047277 0.2087 0.29069 0.033702 0.086824 0.078224 0.030533 0.21404 -0.035108 0.19706 0.04421 -0.29546 0.09959 -0.24275 -0.26514 -0.06762 0.0061411 -0.15318 -0.00031661 0.083599 0.1719 0.094851 0.24007 -0.054876 0.46034 -0.46475 0.2266 -0.038634 -0.35801 -0.39165 0.12959 0.17819 -0.22853 -0.038592 -0.09275 0.0086781 -0.53824 -0.34269 0.15305 0.33207 0.093208 -0.54883 0.0035636 -0.56961 -0.2926 -0.23037 -0.28157 -0.014229 0.26033 0.22423 0.40345 -0.16064 -0.10939 -0.26988 -0.15243 -0.26888 0.9243 -0.18719 0.44764 0.46023 -0.01994 0.27924 0.028449 -0.51053 0.24288 -0.029117 0.19034 -0.12722 0.23504 -0.10102 -0.011945 0.03096 0.18067 -0.49876 0.15537 0.067191 0.3188 -0.63448 0.038279 -0.24244 0.2642 -0.28776 0.21901 0.72297 -0.11682 0.078069 0.19035 0.23526 0.11638 -0.59818 0.14876 0.19589 -0.20629 -0.21451 -0.024093 0.020146 0.16719 0.14874 0.026334 -0.27909 -0.062329 0.34776 -0.038866 0.28067 0.29618 -0.9189 0.19112 0.5196 -0.80601 -0.12861 0.10749 0.18146 0.44528 0.30099 0.22258 0.097989 -0.099006 -0.031405 -0.30835 0.32273 0.29397 -0.1347 -0.19226 -0.41802 -0.18366 0.4268 -0.11204 0.4426 -0.38439 -0.054813 -0.056146 0.10909 -0.092503 0.96113 -0.30532 0.05187 0.27695 -0.075072 0.25609 -0.21439 0.10249 -0.027458 -0.33564 -0.06364 -0.032878 0.20356 -0.18364 0.28567 0.058177 -0.23302 0.13247 -0.059147 -0.22005 0.24599 -0.043607 -0.57848 0.59496 -0.17603 -0.0050886 0.27942 -0.0022145 -0.052565 -0.31583 0.02389 0.20903 -0.23978 0.15201 0.20991 0.088889 0.35376 0.26851 -0.26448 0.23548 -0.22588 0.010023 0.73468 -0.1536 -0.56636 -0.40391 0.27071 0.2751 -0.11217 0.31909 -0.20451 -0.22092 0.0098752 -0.10618 0.17426 0.048614 -0.051706 -0.17509 0.24941 -0.06712 -0.082286 0.20618 -0.045451 0.032966 -0.13673 0.23295 0.1217 0.06727 0.68865 0.35258 0.094553 0.012374 0.42492 0.049613 0.1553 0.13283 -2.4265 -0.30759 -0.045738 0.019686 0.056799 0.031491 0.21484 0.066252 0.075542 0.29071 -0.25472 -0.037851 -0.064745 -0.047067 -0.073662 -0.29654 0.28851 0.1507 0.51352 -0.1223 -0.033151 -0.29194 -0.05189 0.0038907
to -0.25756 -0.057132 -0.6719 -0.38082 -0.36421 -0.082155 -0.010955 -0.082047 0.46056 -1.8477 -0.11258 -0.12955 0.27254 0.0072891 0.26038 0.12096 -0.23193 0.03226 -0.29472 -0.67594 -0.33844 -0.23297 0.1102 0.18816 -0.45184 -0.33833 0.11274 0.4949 -0.042132 0.079961 -0.013146 0.062284 0.20223 0.038279 -1.1154 -0.1214 0.089846 0.29702 -0.055794 -0.46021 -0.13194 0.087357 -0.27865 0.14981 0.25536 0.16698 -0.04452 0.067588 -0.11772 -0.13452 0.28694 -0.39844 -0.12806 -0.47818 0.067802 0.20353 -0.30677 0.60789 -0.18588 0.11997 -0.040508 -0.06586 0.30621 -0.055824 0.039448 -0.4557 0.21081 0.25889 0.14666 0.3095 0.14343 0.10524 0.15788 0.103 0.32211 -0.27939 -0.17139 0.32202 0.10784 -0.28209 0.12611 -0.23913 -0.089638 -0.39179 -0.26402 0.36796 -0.23691 0.62503 -0.027226 -0.038851 -0.37359 0.045442 -0.17169 -0.54477 -0.091772 -0.32952 -0.25522 0.087106 0.048685 -0.31684 -0.064198 0.044885 -0.49587 0.429 0.36198 -0.14682 0.20122 -0.030038 0.18736 0.31626 0.059023 -0.13473 -0.40664 -0.52983 0.072459 0.082531 -0.32495 -0.006691 0.43564 -0.12976 -0.26293 0.15975 0.25062 -0.064732 -0.30689 0.16084 0.4583 0.38565 0.12612 -0.00080485 0.18055 0.24757 0.5568 0.21701 0.33105 0.11991 0.0027257 -0.10679 -0.16922 0.25277 0.36024 -0.4762 -0.20035 0.38473 -0.71653 -0.13788 -0.12201 -0.16979 -0.29624 -0.010344 0.19216 0.063375 0.30977 -0.19759 0.57419 0.34018 -0.34795 -0.085304 -0.028243 -0.39182 0.23797 -0.092997 0.11981 -0.2368 0.098179 0.083047 0.12652 0.16026 -0.14166 0.14296 -0.12868 0.18181 -0.42337 0.18061 -0.051635 -0.17987 -0.097071 0.0013755 -0.42539 0.56817 0.057432 0.31577 0.18918 0.27639 -0.39906 0.18594 -0.54231 0.61376 0.37921 0.1366 -0.39842 0.58557 0.054558 0.061801 0.32546 -0.19615 -0.034329 -0.013225 0.67854 -0.16672 0.92439 0.11952 0.040351 0.35368 -0.25573 0.26648 -0.020954 0.18535 0.062376 -0.22976 -0.074563 -0.3289 0.28535 0.46959 -0.54324 0.14124 0.19964 0.1541 0.024155 0.144 0.30989 -0.15989 -0.11611 0.09102 -0.50317 -0.33662 0.059168 0.43838 -0.1428 -0.0053718 0.046505 0.21546 0.065006 -0.35175 -0.17137 0.20467 -0.07173 0.40879 0.20295 -0.014211 -0.21898 -0.12831 0.3224 0.17608 -0.60267 0.036737 0.54848 -0.47682 -0.56556 -0.083633 0.032302 -0.25262 0.39481 -0.019623 0.62547 -0.11369 -0.25727 0.073363 0.18437 0.14587 0.32708 -0.52049 0.037555 0.023667 -0.068237 -0.22916 0.017755 -0.18394 0.55107 -0.23965 0.39187 -0.017785 0.43113 0.27181 -0.16043 -0.347 -2.4194 -0.028952 0.95085 0.05804 -0.23623 0.18914 0.31192 0.23064 -0.30309 -0.18603 0.07618 0.37337 -0.14444 -0.028793 -0.012806 -0.59707 0.31734 -0.25267 0.54384 0.063007 -0.049795 -0.16043 0.046744 -0.070621
does -0.15698 0.21897 -0.16626 0.13513 -0.21211 0.27813 -0.17297 0.093825 0.16906 -2.1651 0.060056 0.017936 -0.088057 -0.14786 0.31325 -0.0027479 -0.3715 -0.25569 0.047437 -0.032471 0.48222 0.51855 0.53499 0.080645 -0.29109 -0.044694 0.2215 -0.11092 -0.12958 -0.1644 0.088268 0.48417 -0.30984 -0.61167 -0.95886 0.27798 -0.038765 -0.32152 -0.31775 -0.19292 -0.030369 -0.030007 -0.26737 -0.12966 -0.25135 -0.17164 0.056777 -0.012539 -0.11754 0.05494 0.11094 -0.047461 0.16209 0.16843 -0.22642 0.36217 -0.33021 0.091219 0.10782 0.17058 0.33718 0.034557 0.3261 0.36327 -0.31427 -0.16428 0.29229 0.077603 0.42594 0.27304 0.090008 -0.34143 0.31284 0.21882 -0.06896 -0.041121 0.008639 0.29542 -0.50703 0.088008 -0.14191 -0.12349 0.059554 -0.083696 0.038585 -0.050978 -0.19591 0.32254 -0.18426 -0.093691 -0.85239 0.32302 -0.32098 -0.58106 -0.17774 -0.10752 -0.30739 -0.067446 -0.11648 -0.43935 -0.025781 -0.16046 -0.34965 -0.035134 0.016368 0.30644 0.15165 0.091901 -0.086415 0.22387 -0.070424 -0.317 -0.18005 -0.053355 0.18137 0.60523 -0.27527 0.01306 -0.12591 -0.041685 0.006645 0.19714 0.26671 0.22112 0.23039 -0.48329 0.46424 0.50769 0.22429 0.18239 0.39318 0.026786 0.31163 -0.22478 0.41284 0.063084 -0.051936 0.088544 -0.060522 -0.011917 0.39 0.1196 0.20889 -0.13268 -0.42461 -0.4423 -0.27025 -0.076952 -0.04451 0.41998 -0.43812 -0.083111 0.23218 -0.35108 0.14386 0.19342 0.17397 -0.16493 0.047843 0.081021 0.6482 -0.12983 0.23121 -0.2173 -0.12605 0.17268 -0.19903 0.37711 -0.42121 0.21099 -0.036512 0.22319 -0.73001 0.088708 0.068923 -0.26044 0.002378 -0.10908 0.10772 -0.12333 0.0049593 0.044193 0.29012 -0.073114 -0.078649 0.1729 0.21756 -0.025057 -0.2158 0.16333 -0.19821 0.17168 -0.092671 0.11467 -0.1649 0.10605 0.30891 0.14083 0.08792 -0.10672 1.499 -0.1741 -0.058132 0.023991 0.10989 -0.005355 0.30149 -0.016203 -0.27245 -0.53863 -0.41668 -0.22585 0.29101 -0.11237 -0.28437 0.044682 -0.10404 0.20401 -0.53957 -0.1216 -0.33065 0.23616 -0.13477 -0.11774 0.015161 -0.19313 0.13436 0.26079 0.12708 -0.14404 0.15828 0.016913 0.37903 -0.011856 -0.40386 0.037154 0.083119 -0.094152 0.040832 -0.071827 0.24048 -0.15172 0.37879 -0.16032 -0.60138 0.21443 -0.22151 0.019504 -0.49583 -0.45264 -0.0083798 0.14122 -0.44295 0.31381 0.018943 -0.23531 -0.02673 -0.052983 0.16785 -0.47475 0.12306 -0.025012 -0.037514 0.146 -0.19485 -0.038899 0.30033 0.13319 -0.07747 0.12643 0.20317 0.22048 -0.084586 0.16205 0.0099774 0.14678 -1.935 -0.23074 0.45239 0.21573 0.37701 0.001472 0.12401 0.28389 -0.15946 0.19773 0.25963 0.32548 -0.23105 0.065498 -0.10014 0.055078 0.19018 -0.094544 0.039824 -0.40749 -0.025805 -0.18715 0.28017 0.29362
south -0.39116 0.15113 -0.1826 -0.51432 -0.44362 0.33962 -0.21241 0.18222 0.16639 -1.3747 -0.15135 0.20987 -0.19217 0.53431 0.62678 -0.14268 -0.093616 0.15214 -0.146 -0.32866 -0.31001 0.051309 0.38784 0.030928 -0.38597 0.42802 -0.1028 0.31546 -0.33387 0.10426 0.28416 0.4653 -0.4138 0.30511 -0.13349 -0.4194 -0.16536 0.68069 -0.65092 -0.40908 0.40296 -0.17434 -0.33147 0.44387 0.19395 -0.06062 0.62468 -0.54055 0.28168 -0.1311 -0.12803 0.33635 0.14713 0.063475 0.012656 0.26064 0.53499 0.12576 -0.09109 -0.07301 0.18719 -0.24061 0.56918 0.019501 0.5806 0.15388 0.15931 0.37847 0.38194 -0.16299 -0.29621 -0.14793 -0.33825 -0.19085 -0.68839 -0.22004 -0.14234 -0.0039588 -0.091008 -0.24897 -0.22337 0.011206 0.095064 -0.026213 -0.22876 -0.6936 -0.15152 -0.57648 0.5429 0.015687 0.071149 0.11591 0.74267 0.10279 -0.40262 0.40535 0.52395 0.27731 0.0674 -0.11626 0.08671 -0.046507 0.43373 0.0095696 -0.0485 0.072716 -0.059677 0.16316 -0.016911 0.0093119 0.51221 -0.91176 -0.44489 -0.64105 0.6226 0.32079 -0.49488 -0.13719 -0.096734 -0.16593 0.31103 -0.141 -0.56588 -0.57418 -0.082035 0.57879 -0.017157 0.066726 -0.36726 -0.019882 -0.53059 0.12119 0.62645 -0.67911 0.29028 0.45257 0.067919 -0.41053 0.23333 -0.097338 -0.27797 -0.12679 -0.053295 0.009805 -1.059 0.19455 0.013858 -0.24787 -0.57073 -0.59754 0.52008 0.0095696 0.38497 0.026527 1.1289 0.27755 -0.71352 -0.17143 0.49192 0.28161 -0.42468 -0.32352 0.17223 0.068618 0.020388 -0.40852 0.074097 -0.2411 0.54143 -0.55461 0.010411 -0.053076 -0.67284 -0.33992 -0.13281 0.23593 -0.37838 -0.061717 0.19354 0.69882 -0.0017753 0.063799 -0.34252 -0.060307 0.29737 -0.13673 -0.81919 0.15631 -0.7337 -0.14408 -0.13016 0.47151 0.10281 0.11508 -0.38181 0.3199 0.92238 -0.73221 0.27069 -0.0058644 1.4263 -0.13313 -0.86157 -0.66736 0.05585 -0.35541 -0.12657 0.01786 0.37056 -0.00054698 0.37371 0.13733 -0.41938 0.41148 0.15984 -0.3165 0.17386 -0.14818 -0.49664 -0.39573 1.181 -0.27916 -0.16839 -0.30422 0.11436 -0.40881 -0.26223 -0.17917 -0.32159 0.099354 -0.14998 -0.26498 0.16328 0.74449 0.20351 0.066632 -0.20457 0.44887 0.2327 -0.25118 -0.34867 0.24904 0.056834 0.13861 -0.11757 0.23185 0.27963 0.022645 0.53021 -0.25844 -0.097862 -0.040771 -0.11215 -0.078828 0.17282 -0.8198 -0.32433 -0.14248 0.13311 0.091441 0.039234 -0.34622 -0.32313 -0.0062906 0.20828 0.015951 0.10798 0.0078463 -0.2884 0.11292 -0.23707 -0.13291 -0.072939 0.37182 -0.0013934 0.45223 -2.0445 0.71901 0.65461 0.50476 -0.57515 -0.027099 -0.25284 -0.65854 -0.3178 -0.16291 0.35276 -0.24002 -0.17377 0.1097 0.085074 -0.26255 0.36962 -0.17452 0.10734 1.0373 0.28169 -0.056988 0.14564 0.091975
east -0.2183 -0.292 -0.34106 -0.14572 0.10507 -0.31235 -0.31116 0.569 0.30652 -1.5605 -0.23128 -0.0017951 0.090463 0.18227 0.6016 -0.056207 -0.097312 0.409 0.38804 -0.2451 -0.27394 -0.074288 -0.020219 0.13184 -0.15219 0.26821 -0.23338 0.12535 -0.30651 0.32243 0.57237 0.029328 -0.045936 0.043967 -0.08634 -0.094165 -0.40331 -0.046856 0.0034236 -0.50166 -0.4653 -0.44476 -0.25131 0.016489 0.36353 0.28861 0.43899 -0.0022482 -0.17254 -0.42928 0.37769 0.41844 0.10049 -0.52447 0.16275 -0.072811 0.34435 0.33437 0.025932 -0.4304 -0.089929 -0.1696 0.053037 -0.16832 0.96257 0.086166 0.17398 0.57333 0.23673 -0.43095 0.2298 -0.041017 -0.10238 -0.57061 -0.58919 -0.00064085 0.13951 0.087595 -0.22584 0.43173 -0.13009 -0.11642 -0.38086 0.46044 0.45908 -0.87267 -0.012543 0.32011 0.73493 0.29244 0.28769 -0.052624 0.31715 0.3828 -0.62363 0.12775 0.55589 -0.40123 -0.050563 -0.18013 -0.42294 -0.26097 0.47015 0.16245 0.19888 -0.078342 0.69882 -0.1326 0.54501 0.16378 -0.034657 -0.95009 -0.035252 -0.071178 0.382 0.18884 -0.40957 -0.19494 0.13213 0.020346 0.23684 0.028636 -0.31321 -0.49653 -0.063819 0.43633 0.50416 0.011614 0.35561 -0.65346 -0.094537 0.3347 0.13659 -0.39076 0.10873 0.43687 -0.13021 0.0097346 -0.18704 -0.22847 0.056772 0.026303 0.11484 0.43188 -0.66862 -0.21291 0.36246 -0.066339 -0.98143 -0.66679 0.88274 0.14111 0.61492 -0.15366 0.57728 0.047868 -0.2547 -0.044411 0.35232 0.13966 -0.049539 -0.089353 -0.29668 -0.17258 0.023509 0.35953 0.42624 0.12326 -0.33745 -0.40683 0.39172 -0.30866 -0.48166 -0.3651 -0.16564 -0.020382 -0.45959 -0.1736 0.22844 0.03909 -0.35754 -0.017475 -0.099104 0.21396 0.85154 -0.15548 -0.14679 -0.012139 -0.445 0.24548 -0.012638 0.63762 0.41672 -0.23894 0.02624 0.43373 0.48038 -1.0837 0.44579 0.42742 1.2034 0.010543 -0.4233 0.15044 0.063502 0.24276 -0.092831 -0.29998 0.51536 0.23939 -0.24113 0.36732 -0.11034 -0.18226 0.24294 -0.10019 -0.14331 -0.11454 -0.15119 -0.53734 0.88284 -0.55253 0.00054964 0.40962 0.59084 -0.49388 -0.082424 0.32816 -0.35049 0.2643 0.12434 -0.19009 0.20344 0.10869 0.12206 0.117 0.017266 0.0078224 0.13761 -0.33668 -0.7943 0.42357 0.86829 0.13607 -0.13697 -0.22706 -0.10879 0.41889 0.16052 -0.39196 0.50988 0.25583 0.29384 0.2038 0.072811 -0.37315 0.077054 0.086087 0.024749 0.41415 -0.023042 -0.3119 0.18466 0.13845 -0.12934 -0.40549 -0.19454 0.049737 0.17967 0.011618 -0.51295 -0.47726 0.14374 0.30153 0.24375 0.65896 -1.7169 0.33131 0.4189 0.15145 -0.35195 0.15914 -0.067805 -0.42327 -0.056604 0.34342 0.3714 0.22112 -0.02014 0.036595 -0.66058 -0.30694 0.1325 0.28985 0.26504 0.87137 0.12885 -0.31603 0.10479 0.18804
north -0.30985 -0.091342 0.093621 -0.90442 -0.33925 0.15411 -0.058939 0.11738 -0.045736 -1.4726 -0.30917 -0.053969 0.068349 0.39431 0.45617 0.23111 -0.20812 -0.08147 -0.077824 -0.21966 0.08163 -0.018151 0.22584 0.37501 -0.56672 0.34375 0.10228 0.034002 -0.1155 -0.033612 0.571 -0.0042511 -0.13102 -0.045234 0.42522 -0.21632 -0.36829 0.65317 -0.42458 -0.54793 -0.081466 0.26746 -0.39397 0.66435 -0.018079 0.6457 0.73338 -0.21811 -0.13086 -0.1128 -0.39284 0.42323 0.36463 -0.15642 0.091179 -0.044867 0.28326 0.028103 0.14613 0.017603 0.20015 -0.012788 0.76922 -0.24161 0.47717 -0.050231 0.13048 0.6378 0.49318 0.073965 -0.046589 -0.29323 -0.23888 -0.13564 -0.54748 0.016883 -0.25172 0.17496 -0.38478 -0.296 -0.3777 -0.18996 -0.16632 0.16109 -0.2203 -1.076 -0.3452 -0.12443 0.414 0.16239 0.029214 0.26401 0.24051 0.23526 -0.25717 0.51812 0.40665 0.076499 -0.043038 -0.23395 -0.034556 0.13311 0.11491 0.45583 -0.55231 -0.26205 0.04615 0.086991 0.18556 0.33209 0.078568 -1.3462 -0.36832 -0.52529 -0.23527 0.11241 -0.56418 -0.19947 0.33482 0.16766 0.035405 -0.079767 -0.29287 -0.13632 -0.24754 0.40163 0.22594 -0.0062353 -0.079635 -0.43143 -0.3128 0.16238 0.205 -0.73167 0.44536 0.75133 0.061053 -0.4553 0.11534 -0.0032904 -0.13857 -0.42061 -0.035957 -0.25764 -0.86319 0.3253 0.083063 -0.26538 -0.59149 -0.8603 0.8101 0.21548 0.13831 0.19994 0.87264 0.1872 -0.66793 -0.1329 0.41512 0.45203 0.18405 -0.65644 0.087521 -0.28732 -0.10262 -0.11531 0.22398 -0.40519 0.60614 -0.42251 -0.075721 -0.17932 -0.74812 -0.29791 0.038842 0.23134 -0.15819 -0.20917 0.61733 0.48946 -0.12726 -0.21976 -0.5923 0.087776 0.37404 -0.44505 -0.6462 -0.22695 -0.42041 -0.098689 -0.4607 0.49709 0.22713 -0.083142 -0.29644 0.48346 0.46036 -0.86227 0.54985 0.40093 1.515 -0.26733 -0.51033 -0.11875 0.3244 -0.13567 0.0070064 -0.27429 0.21157 -0.026232 0.21383 0.46084 -0.37374 0.013921 -0.27963 -0.38998 0.28952 -0.11437 -0.73603 -0.36315 0.91822 -0.11595 0.035321 0.00034289 0.25092 -0.090243 -0.12925 -0.42358 -0.14987 -0.16791 -0.14388 -0.19079 0.4414 0.39194 0.25728 -0.1855 0.011379 0.40004 0.31257 -0.10662 -0.59343 -0.26591 0.3911 0.14207 -0.23355 0.014455 0.31602 0.076973 0.44617 -0.061818 -0.001249 0.25421 -0.60211 0.33249 0.26645 -0.55173 -0.35262 0.13684 0.2789 0.077364 -0.24811 -0.091768 -0.12874 0.11176 -0.23494 -0.16396 0.0023443 0.032981 0.17921 -0.10855 -0.11016 -0.18374 -0.4369 0.50202 0.053984 0.1669 -1.9337 0.46003 0.70703 0.29182 -0.26709 0.0090645 0.057458 -0.54882 -0.42564 -0.20647 0.23565 -0.11572 0.42557 0.26545 0.10314 -0.45476 0.69672 0.25084 0.074711 0.88909 0.14128 -0.068537 0.22008 0.11529
west -0.044975 -0.38301 -0.19541 -0.31315 -0.12829 -0.50889 -0.24842 0.19213 0.085058 -0.86572 -0.3895 -0.040689 0.20808 0.19519 0.65287 0.22944 -0.11736 -0.04895 0.5343 0.022319 0.12614 -0.23654 0.015072 0.13365 -0.13663 0.12497 -0.25355 0.33628 -0.47142 0.47088 0.41783 -0.051819 -0.10665 0.09498 -0.24898 -0.40551 -0.22232 0.21822 -0.39122 -0.7001 -0.56814 -0.14275 -0.41608 0.046567 0.42283 -0.005084 0.23951 -0.2439 0.079118 -0.30605 0.18852 0.14795 0.17697 -0.35876 0.22509 -0.4256 0.3753 -0.42459 0.10601 -0.60072 0.23457 -0.08104 0.47443 -0.33503 0.80973 0.43448 0.23195 0.42159 0.48628 -0.10552 0.34057 -0.021237 0.3926 -0.15575 -0.5925 -0.023439 -0.2378 0.25335 -0.551 0.20658 -0.21102 0.15047 -0.47093 0.37635 0.031121 -0.69265 0.016644 0.23814 0.74352 0.25682 0.08813 0.086676 0.43408 0.46839 -0.34754 0.10814 0.47899 -0.021649 -0.016709 -0.18186 -0.116 0.1667 0.40212 -0.15702 0.047482 0.11499 0.57016 0.17195 0.70029 0.22422 -0.23889 -0.78343 0.054643 -0.2324 0.20412 0.33409 -0.42412 -0.17263 -0.14372 -0.33289 0.53775 0.40153 -0.40501 -0.13368 -0.19427 0.57619 0.11632 -0.43129 0.18844 -0.48016 -0.070627 0.21429 -0.11972 -0.51943 0.2119 0.56735 0.21707 -0.41534 -0.25942 0.016804 -0.13889 0.14149 0.00022749 0.46395 -1.0237 -0.17476 0.33397 -0.1769 -0.60246 -0.35309 0.4452 0.25846 0.51605 -0.17566 0.65058 -0.12869 -0.32633 0.18223 0.22698 0.48946 0.077436 -0.10034 -0.040489 -0.37168 -0.35573 0.21114 0.53927 -0.033292 0.1114 -0.5345 0.33306 0.28301 -0.25935 -0.13929 -0.039843 0.54814 -0.53886 -0.18376 -0.23545 0.28821 -0.20781 0.07169 0.09165 0.11869 0.74246 -0.14899 -0.41206 -0.3051 -0.41431 0.49613 0.13225 1.0308 0.14958 -0.082428 -0.32634 0.043985 0.50564 -1.0135 -0.0091183 0.24913 1.6256 -0.26528 -0.51056 -0.23572 -0.25657 -0.26836 0.40262 -0.13818 0.61436 -0.19543 -0.26518 0.13089 0.0026763 0.06147 0.12514 -0.10909 0.22605 0.22679 0.012892 -0.7626 0.63743 -0.36951 0.11621 0.39545 0.61099 -0.26244 -0.092484 -0.10737 -0.22304 0.33778 0.014034 -0.037102 0.22319 -0.09904 0.20025 0.18008 0.13501 -0.1514 0.23522 -0.41863 -0.51392 0.35039 0.59014 0.00043452 -0.34089 -0.07833 -0.34021 0.080421 -0.0055676 -0.45901 0.56274 0.16076 0.23566 0.18904 0.22259 -0.23481 0.14367 -0.40304 0.13338 0.27732 0.3454 -0.28126 0.0083826 0.13482 -0.6985 -0.069107 -0.12619 -0.032098 -0.042548 0.4869 0.031658 -0.59885 -0.15109 0.044103 0.18646 0.54005 -2.0206 0.083931 -0.039675 -0.095815 -0.22058 -0.1106 -0.22001 -0.19382 -0.31629 0.10096 -0.10001 -0.028198 0.17653 -0.19262 -0.7214 -0.62546 0.58743 0.31444 0.4221 1.0038 0.18274 -0.6119 -0.072234 0.156
rectangle -0.13222 0.0046164 -0.25634 -0.43277 -0.14406 0.194 -0.046233 -0.054557 -0.16521 0.18614 -0.61487 0.47656 -0.17741 0.2086 -0.14316 0.54754 -0.37519 0.42704 0.27591 -0.55598 -0.36585 0.23625 -0.85473 0.48172 0.47705 0.0047754 -0.01375 -0.56842 0.071909 -0.074317 0.21963 0.2606 -0.19821 -0.58148 0.40967 0.63708 -0.25802 -0.13543 -0.28182 0.47659 0.35629 0.12038 -0.38998 0.23126 0.19782 0.20759 0.072437 0.33658 -0.19844 -0.016855 0.51465 0.0454 0.62291 0.067751 0.28887 -0.58466 -0.096292 0.18314 0.37199 0.095878 0.013539 -0.33122 -0.30919 -0.34538 0.55576 0.16978 0.11285 0.096557 0.23111 0.093969 0.57391 0.017576 0.13034 -0.24953 -0.074654 0.3728 0.28452 -0.12841 -0.11365 -0.57486 0.071777 0.31474 0.22387 0.0028644 0.13372 -0.59367 0.093847 0.32835 0.16564 0.25594 0.11866 0.081083 0.2737 -0.30252 -0.41132 -0.39927 0.50885 0.74576 0.36663 -0.15584 0.28909 0.49809 -0.50252 -0.74576 -0.51648 0.14539 0.12524 -0.44677 -0.053363 -0.23507 -0.28839 -0.10274 0.13568 -0.07913 -0.58375 0.46045 -0.19808 0.51096 0.094286 -0.055143 -0.22739 0.015731 0.50387 0.7368 0.22175 0.23973 0.17102 0.1303 -0.59153 -0.1458 -0.31725 0.33414 -0.39182 0.49418 0.24029 -0.33979 0.02242 -0.41738 -0.2889 -0.33627 0.48801 0.50572 -0.61105 -0.38997 -0.060331 -0.40581 -0.079986 -0.34349 0.31732 -0.11693 -0.71353 0.3448 0.54883 -0.52061 0.2957 -0.17882 0.33913 -0.083363 0.27137 0.29967 -0.4545 -0.11525 0.16602 -0.072539 0.092919 -0.2045 -0.45341 0.46525 0.29958 -0.53473 0.2049 -0.22646 0.29532 -0.093232 -0.26676 -0.70634 -0.24263 0.34722 0.029607 -1.5173 -0.05687 -0.25862 0.26465 -0.022291 -0.30361 -0.82287 0.62142 0.15625 0.16472 1.2645 0.73921 0.48234 0.47903 0.42999 0.69897 0.053207 -0.10318 0.070064 0.12705 -0.20776 0.27933 -0.60143 0.14115 0.20853 0.23457 -0.29919 0.037495 -0.093308 -0.020273 0.40338 0.28554 -0.055417 0.20022 0.073978 -0.37995 0.17593 0.099364 -0.42214 -0.40987 0.088945 0.24867 -0.080976 0.67881 0.16594 0.062456 -0.19289 0.27088 -0.055167 -0.029336 -0.24944 0.25957 0.097667 -0.19542 0.2261 -0.06708 -0.14324 -0.58044 0.30213 -0.16831 -0.21639 0.21144 -0.19036 -0.09337 -0.117 -0.17284 -0.12175 0.18555 0.12854 0.26569 0.15879 0.043375 0.09856 0.0020989 -0.66546 -0.36847 0.26935 -0.34354 -0.6245 -0.19486 0.55163 0.37746 0.19204 0.62634 -0.28182 0.13604 0.25194 -0.33155 0.47342 0.4671 0.45387 -0.24524 -0.4811 0.22155 0.46315 -0.35198 0.38954 0.40324 -0.13904 -0.31205 -0.090286 0.1761 0.093413 -0.79919 0.064331 0.20813 0.16269 0.30055 0.27574 -0.079966 0.0080684 0.51317 0.25805 0.16293 0.32195 0.2714 0.16106 0.14197 0.026713 0.10789 -0.65666
gave 0.23276 -0.19902 -0.38974 0.064146 0.03801 -0.14448 -0.26049 -0.24603 0.093322 -1.1692 0.062928 0.1569 -0.26827 0.2909 0.19275 0.69437 -0.05951 0.028251 0.15989 0.064712 -0.14475 -0.0012386 0.18527 -0.039865 -0.33615 -0.37657 -0.28352 0.18312 -0.21313 -0.2243 -0.19883 0.053781 0.12214 0.16696 -1.428 -0.078418 0.072389 0.46189 0.021362 -0.73972 0.19948 -0.026359 0.30806 0.6381 0.20884 -0.018968 -0.14222 -0.17819 -0.034838 -0.18693 -0.24124 0.21652 0.12572 0.34005 -0.16653 -0.083981 0.42337 0.025157 0.006189 -0.061316 -0.52097 0.16547 0.21978 -0.1074 0.12011 -0.56154 0.29907 -0.28234 0.080599 0.011884 0.33492 0.077406 -0.21247 0.059333 0.15201 0.2586 -0.20224 -0.11954 -0.14955 0.24855 0.25189 0.33848 0.27109 0.14717 0.029852 0.20873 0.31239 -0.14806 0.065378 0.052982 -0.044528 -0.32151 -0.75778 0.038714 -0.16478 -0.10497 -0.21133 -0.23192 0.032218 -0.13906 0.13661 -0.20398 0.24838 0.094699 0.10818 -0.20284 -0.21514 0.38383 -0.51836 -0.14446 0.15594 0.29844 0.3316 -0.025774 0.14754 0.32238 -0.27691 0.056298 0.69808 -0.40425 -0.22058 -0.24132 0.044095 -0.012663 0.071932 0.16162 -0.057842 -0.27573 -0.57418 0.10347 -0.13903 -0.23779 -0.30643 0.015792 -0.020835 0.3782 0.078277 -0.49517 0.38772 0.48149 -0.065302 0.19929 0.13759 -0.3238 -0.51232 -0.23835 0.031943 -0.049468 0.14128 0.121 0.12774 -0.023782 0.17665 -0.03158 -0.14396 0.53361 0.042888 -0.022219 0.10816 -0.4401 0.15338 -0.13602 0.13451 -0.040109 -0.15076 0.17468 -0.30634 0.12021 0.089375 0.36828 -0.025757 -0.6658 -0.69558 0.074529 0.42081 0.028839 0.1329 0.35084 -0.07549 0.44926 0.13026 0.62985 0.17962 0.017273 -0.55394 0.0104 -0.76274 -0.040757 0.38358 0.21819 -0.13781 0.17066 0.28334 -0.26723 0.20171 -0.44623 -0.18712 0.012875 0.26775 0.18043 0.91532 -0.024584 0.12293 -0.074237 -0.17781 0.12995 -0.41925 0.30845 -0.32312 -0.16366 -0.41777 0.15577 -0.094847 -0.037103 0.22082 -0.23079 -0.17144 -0.16553 -0.21021 -0.071985 0.32116 -0.27148 -0.0014258 0.35659 -0.23278 0.36755 0.061272 -0.064441 0.26168 0.21183 -0.31371 -0.063083 -0.33336 -0.039143 -0.068152 0.081514 -0.19431 0.17225 0.30707 0.29312 0.2375 -0.14799 0.077076 0.11987 -0.20223 -0.4166 -0.18387 0.15301 -0.40543 0.021866 0.020899 -0.44682 0.33926 -0.29508 0.41174 0.25902 -0.25827 -0.34597 0.076574 -0.14766 -0.2365 -0.049998 -0.027632 0.19192 -0.42324 -0.05067 -0.00019126 0.090415 0.14474 -0.27148 0.016787 -0.24938 -0.014516 -0.29032 0.39266 -0.33125 -1.6253 -0.033502 0.37393 -0.01558 -0.35347 0.57802 0.24357 -0.081145 0.0046459 0.17539 0.069731 0.15796 0.3833 0.14554 -0.36567 0.11504 -0.31028 0.30148 0.078703 0.11861 -0.11169 -0.04084 -0.061755 0.17708
then -0.22797 0.0603 0.080908 -0.10034 -0.071545 -0.26247 0.10181 -0.30661 0.37967 -1.7087 0.099181 -0.075643 0.044734 -0.21937 -0.016285 0.37656 -0.22592 -0.27163 0.39357 0.10679 -0.11933 0.06903 0.20121 -0.12503 -0.37203 -0.2212 -0.031007 0.14248 -0.24214 0.023857 -0.12786 -0.16933 0.32573 0.099092 -0.86991 -0.029118 -0.372 0.29995 -0.32214 0.26119 -0.091501 -0.15047 -0.53058 -0.020639 0.39309 0.22538 0.24143 0.15551 -0.12373 0.2245 -0.015845 -0.17459 0.07173 0.12617 -0.02043 0.005894 0.34306 -0.058998 -0.11764 -0.069085 0.20294 0.30773 0.04002 0.17675 0.048256 -0.71734 -0.091793 0.094124 0.14048 -0.28909 0.13319 -0.094914 -0.19128 0.57754 -0.0083429 -0.013777 0.14881 0.083866 -0.22312 -0.34735 -0.14094 0.0015111 0.4055 0.040825 -0.064478 0.12257 -0.10822 0.26993 0.12915 -0.13773 0.030079 0.26077 -0.30239 -0.31272 -0.41813 0.009169 -0.4647 0.095844 0.033399 -0.49482 0.11643 -0.045094 0.3502 0.099626 0.29635 -0.024921 0.19085 -0.08069 -0.30224 0.5637 0.18862 -0.01427 -0.11875 -0.061088 -0.1804 0.48873 -0.45641 -0.10746 0.20774 -0.28779 -0.11356 0.1154 -0.20237 -0.0056412 0.071751 -0.084712 0.068801 -0.07565 0.005644 0.15429 0.077575 0.24289 0.05226 0.064408 -0.19213 -0.12401 0.37202 -0.2349 -0.17346 0.072699 0.2419 0.068628 -0.62413 0.4635 -0.57685 -0.15148 0.5269 0.05056 0.0091379 -0.34239 0.31984 0.28617 0.022732 -0.20417 0.37556 0.030394 0.31736 -0.57351 0.14542 -0.31107 -0.024208 -0.32551 -0.047869 -0.11923 0.16377 -0.38596 -0.020174 0.073035 0.15218 0.52727 -0.38151 -0.18956 0.0077746 0.12887 0.12092 0.32464 -0.084017 0.17302 0.20714 0.23406 0.16837 0.29884 -0.09466 -0.043179 -0.070375 -0.17793 -0.73372 0.50047 0.20922 0.25992 0.15379 0.35034 0.1467 -0.35992 0.03075 -0.099653 -0.067662 0.1254 0.31485 -0.29342 1.167 -0.27963 0.11448 0.24129 0.10713 -0.039889 0.011137 0.22219 -0.12548 -0.17199 -0.0031717 -0.062672 0.20855 0.14662 0.07172 0.29378 0.22365 -0.33483 0.035483 -0.036281 0.28352 0.276 -0.46959 -0.16222 0.10266 -0.13697 0.26771 0.067621 0.1046 -0.0023908 0.29631 0.031861 -0.15549 -0.28336 -0.081296 0.11228 -0.012658 -0.0054376 -0.024135 0.049907 -0.12672 -0.023024 -0.1089 0.21446 -0.23653 -0.063868 0.51506 -0.036585 -0.095819 -0.26101 0.028851 -0.072953 -0.259 -0.27742 0.71096 -0.02692 -0.11985 0.030034 0.071974 0.20775 -0.34516 -0.60897 0.13816 0.089999 -0.0060559 -0.31126 -0.37351 -0.064648 -0.14596 0.21458 -0.25329 -0.21102 0.15644 0.50041 -0.087709 -0.003796 -1.8207 -0.38052 0.24461 0.014657 -0.75789 0.0086513 0.13822 -0.1113 -0.16134 0.7316 0.0057597 0.029804 0.021609 0.15438 0.097897 -0.16665 0.12047 0.03789 0.072808 0.16065 0.27585 -0.61398 0.10557 0.12032
evening -0.33529 -0.29708 0.044352 0.54505 -0.3474 -0.012457 0.021506 -0.20773 -0.13945 -0.87426 -0.14472 -0.20459 -0.25744 0.45581 0.19217 -0.055213 0.35834 0.14857 -0.025966 -0.05333 -0.062313 -0.34734 0.095044 0.30141 -0.12433 -0.24707 0.38749 -0.15902 -0.03677 -0.28332 0.081494 -0.33477 0.15387 0.35953 -1.371 0.26073 0.02662 0.5933 0.041678 0.11497 -0.027215 0.17962 -0.10623 0.23116 0.077428 0.35437 0.40845 0.067099 -0.075487 0.13918 0.079097 -0.058872 -0.078615 -0.32772 -0.26411 0.63771 -0.15264 -0.19427 0.37451 -0.13367 0.14011 -0.36466 0.034672 -0.1734 -0.23398 -0.51939 0.5055 0.39069 -0.58271 -0.052694 -0.10302 -0.20077 -0.18307 -0.37426 0.070532 0.42574 -0.13307 0.36259 0.11114 0.12393 -0.17787 0.22119 -0.31311 0.35523 0.16817 -0.061505 -0.56523 -0.31758 0.41214 0.61441 0.058479 -0.21296 -0.13522 0.085385 0.028058 -0.036686 0.28903 -0.20214 -0.2042 -0.2341 0.34426 0.27155 -0.016558 0.44086 0.40148 0.13784 0.65464 0.087637 0.27701 0.01885 -0.32602 0.37653 0.40662 0.11531 0.16954 0.14875 -0.22849 -0.11608 0.23302 -0.79937 -0.14907 -0.23035 -0.16252 -0.01131 -0.30591 -0.12972 0.36343 -0.028206 -0.24083 0.00035618 0.015522 0.3208 0.10246 -0.069762 -0.56864 -0.27285 -0.48103 0.11575 0.53064 0.27547 -0.40565 0.040537 -0.024478 -0.2535 -0.37842 0.026163 0.40017 -0.0084145 -0.33024 0.23352 0.92211 0.32986 0.47604 -0.15537 0.60438 -0.31349 0.57891 -0.094676 0.15544 -0.27386 0.14555 -0.31378 -0.072144 -0.43163 -0.002686 0.33325 -0.3777 -0.10808 0.16294 0.086935 -0.54557 0.017283 -0.17471 0.313 -0.088312 -0.099585 -0.12905 0.56267 -0.066493 0.10027 0.40941 0.14429 -0.19915 -0.12681 0.32123 0.87193 0.049886 0.042332 -0.84837 -0.3331 -0.049362 0.11086 -0.30786 0.0035662 0.04408 0.016384 -0.3993 0.048674 -0.35686 -0.086577 0.39548 -0.30248 -0.1885 0.58309 0.21748 -0.02689 -0.33083 -0.20694 -0.4787 -0.38772 -0.058683 0.091793 -0.11671 -0.26372 0.30731 -0.38526 0.044709 -0.85089 0.53452 -0.13014 1.2936 -0.11097 -0.27126 0.38267 -0.47143 0.2093 0.23997 -0.39418 0.21419 -0.075807 0.31734 0.0072984 -0.097197 -0.56478 1.3791 0.1941 0.16447 -0.23481 0.061825 -0.04394 0.21007 -0.034715 -0.4522 0.30152 0.40407 0.41528 -0.1621 -0.092427 0.10382 -0.0507 0.11931 -0.04505 0.16222 0.060214 0.35859 -0.039433 0.32353 0.2346 0.034137 0.22685 -0.057296 0.24289 0.34805 0.056492 -0.2642 -0.25994 0.058706 -0.11837 0.30031 -0.26283 0.23084 -0.042653 0.06059 0.067523 -0.083016 0.067319 -1.9548 -0.026701 0.070524 0.26909 -0.35934 0.1161 0.50955 -0.53202 -0.06959 -0.064595 -0.1536 0.43922 -0.4384 -0.14126 -0.076843 0.1831 -0.19174 0.46887 -0.19835 0.054132 0.2288 0.18034 -0.27951 0.13892
triangle 0.11336 -0.26752 0.12971 -0.53841 -0.15447 0.19058 0.23461 0.41172 -0.23519 -0.52323 -0.40122 0.068793 -0.54334 0.4964 0.24414 0.38892 0.18935 0.19771 0.32224 0.18902 -0.3753 -0.11042 -0.23843 0.0026596 0.30801 0.13361 -0.19448 -0.30954 -0.33887 0.039962 0.31018 -0.035912 -0.64859 -0.17717 0.38552 0.73547 -0.741 -0.24652 -0.028481 0.37608 0.56451 -0.19933 -0.77336 0.20039 -0.16157 -0.50123 -0.11998 0.14055 -0.10752 0.3421 0.20409 -0.087685 0.58951 0.44883 0.028721 -1.0544 0.32888 0.1674 0.27256 -0.040339 -0.21397 -0.71273 -0.0018868 -0.24426 0.46944 0.37206 0.32742 0.6215 0.474 0.33995 -0.19469 0.47762 0.26965 0.063924 -0.37464 -0.047554 0.23982 -0.54945 -0.30421 -0.20254 0.25757 0.026216 0.51156 -0.05757 0.016652 -0.12449 0.60935 0.65842 -0.35142 -0.15761 0.18471 0.55928 0.66284 -0.34277 -0.43971 0.51154 0.78863 0.50304 0.3242 -0.84957 0.073765 0.64263 -0.55713 0.13047 -0.15592 0.068162 -0.029514 -0.11605 0.13958 -0.21007 0.085943 -0.70473 0.16874 -0.39229 0.11445 0.46377 -0.25637 0.39123 0.064952 0.58777 0.13252 -0.31807 0.66605 0.12609 -0.31373 -0.039193 0.092146 0.1262 -0.50228 -0.44605 0.11108 0.42187 -0.063568 -0.21204 -0.83183 -0.28553 0.40103 -0.77666 -0.3149 -0.30733 0.16337 0.44735 -0.28238 -0.47858 0.18711 -0.36442 0.11847 -0.76538 0.20228 0.21426 0.14771 0.24877 0.0082626 -0.29221 -0.053321 -0.33047 0.12742 0.3476 0.080583 -0.09566 0.27903 0.054206 0.28493 -0.4914 -0.0089317 -0.43997 0.34296 0.34633 -0.25737 0.18336 -0.22253 -0.22469 -0.50091 0.44252 -0.18944 -0.22724 -0.57575 0.060104 -0.48775 -0.45299 -0.27563 -0.14899 -0.34721 -0.13865 -0.23775 -1.2185 -0.07311 0.33376 -0.14617 0.36675 0.024296 0.50688 0.40815 0.73195 -0.14767 0.52092 0.15022 -0.161 -0.24822 0.0074749 0.82173 -0.24451 0.28475 0.33073 0.19927 0.3551 0.26231 0.058067 0.47451 0.52427 0.021423 0.10142 0.7832 0.067024 -0.0015172 0.23394 0.24019 -0.32231 -0.40491 -0.18191 0.29271 -0.30232 0.61525 0.36283 -0.22899 0.011122 -0.356 -0.26099 -0.38061 -0.25916 0.41939 -0.28006 -0.050431 -0.38509 -0.25335 -0.28417 -0.1004 0.52694 0.51387 -0.42809 -0.15351 -0.11201 0.38649 -0.016694 0.17674 -0.014251 0.052608 0.83272 0.13421 -0.32034 -0.46649 0.27225 -0.20052 -0.49594 -0.0908 -0.12749 -0.33631 -0.26399 -0.26545 0.32698 -0.12616 -0.10797 0.77886 -0.11597 -0.58583 -0.5715 -0.11918 0.51755 -0.25955 0.18756 0.54246 -0.4489 0.68764 -0.060654 0.075452 -0.028496 -0.42561 -0.33497 0.044323 0.62523 -0.18093 -0.16487 -0.93614 -0.34905 0.081863 0.065675 0.57431 0.13614 -0.19953 -0.27434 0.59564 -0.29601 -0.040889 0.66338 -0.13318 0.71695 0.46061 0.32839 0.16722 -0.57468
garden -0.38151 -0.37697 0.28553 -0.22543 0.10474 0.31449 0.22423 -0.15057 0.18263 -0.12948 0.23156 0.21855 -0.19084 0.36696 0.036394 0.057865 -0.3244 -0.24843 0.30525 0.43773 -0.42926 0.38257 -0.20918 0.39923 -0.027998 -0.057815 -0.55206 -0.12753 -0.1259 0.68944 0.85799 0.03946 -0.079298 0.025052 -0.40749 0.75136 0.45626 -0.55978 -0.21383 -0.63494 0.16181 0.50706 -0.25475 0.56921 0.1527 0.014781 0.34233 0.6582 -0.09254 0.15097 -0.44651 0.019343 -0.026875 -0.15077 0.14729 -0.48681 0.091501 0.084542 0.46823 -0.44353 0.30419 -0.44859 0.51556 0.53197 0.16854 -0.068073 -0.21452 0.31674 -0.497 -0.53969 0.12545 0.11831 0.092866 -0.12156 -1.1497 0.57084 0.30267 -0.29926 0.085656 -0.59005 -0.097409 0.80005 0.38702 -0.18768 0.30122 0.58686 0.11291 0.20398 -0.16125 -0.17022 0.28538 -0.72427 0.31261 -0.40934 -0.0075345 -0.26986 0.66526 -0.31338 -0.18173 -0.65288 0.072694 0.24795 -0.3973 0.014948 -0.27464 -0.41243 0.17802 0.10358 0.32449 -0.036711 -0.031387 -0.24836 0.33663 -0.0029707 -0.29077 0.2397 -0.34008 0.5375 -0.061643 -0.32741 -0.26804 0.22106 0.051327 0.18925 -0.29663 -0.40364 0.12572 0.3745 -0.39924 0.16459 0.67402 0.42339 0.61374 0.19626 -0.61708 -0.15935 0.36762 -0.16902 -0.11166 -0.046862 -0.19589 0.21995 0.50874 -0.011894 -0.038621 0.59138 0.10446 -0.012612 -0.72825 -0.20075 -0.14283 0.16646 -0.50362 -0.31536 0.059411 -0.066922 -0.30954 0.68598 0.17832 -0.14372 0.57316 0.33911 0.46368 0.18136 0.2229 0.59441 -0.1606 -0.26758 0.6195 0.018037 -0.13447 -0.076466 -0.24681 0.20899 -0.1809 0.38675 0.39022 0.30213 0.6541 -0.46832 -0.051721 -0.12911 -0.0068399 -0.25793 -0.22234 0.58222 0.34985 0.27859 0.46056 -0.18229 -0.31086 0.33134 -0.51059 -0.012796 -0.83144 0.1411 0.23273 0.057259 -0.2703 -0.020946 0.86481 -0.13657 -0.37627 0.02115 -0.0010659 -0.49326 -0.078373 -0.36732 -0.12174 -0.2492 -0.27314 0.078244 0.17737 -0.69401 0.32315 0.17227 0.079485 -0.33959 0.42672 -0.17876 0.92409 -0.36907 -0.53436 0.18776 -0.30684 -0.41173 -0.18965 0.3903 0.05002 0.0062362 0.36711 0.13 0.18672 -0.06464 0.592 0.1465 -0.13657 -0.50242 -0.52388 -0.32038 -0.3128 -0.35728 0.043942 0.19146 -0.45661 -0.17427 -0.11518 0.4546 -0.10494 -0.078548 0.9911 0.2586 -0.0099182 -0.31795 0.62555 0.006936 0.062837 -0.098089 0.48959 -0.036162 -0.3288 -0.20323 0.33672 -0.41906 -0.48343 -0.33578 -0.18428 0.7385 0.44089 -0.46333 0.4698 -0.11963 0.033885 -0.75379 -0.089491 0.14844 -1.803 0.079799 -0.087365 0.026892 -0.48902 -0.20044 -0.069448 -0.44831 -0.4053 0.042636 0.18982 0.25514 -0.16477 -0.039658 0.75526 -0.11817 -0.2056 0.044311 0.58421 0.12742 0.36163 0.24652 0.75641 0.26799
get -0.14124 -0.11836 -0.30782 0.098416 0.22392 0.16936 0.14836 -0.030609 0.12675 -1.678 0.047008 -0.51472 0.061434 0.011199 -0.46598 0.14791 -0.45031 -0.23769 0.092859 -0.066591 0.17914 0.47964 0.29055 -0.21231 -0.34667 0.075214 0.23294 0.054657 0.11197 0.083518 -0.061204 -0.08805 -0.28647 -0.10179 -1.6608 0.16875 -0.083723 -0.096653 -0.048558 -0.31066 -0.32815 -0.21082 -0.055374 -0.31882 0.34422 0.17592 0.25563 -0.14945 -0.22247 -0.40295 -0.026977 -0.3545 -0.046251 -0.047974 -0.5121 0.41011 0.20865 -0.043247 -0.18686 -0.0345 0.22544 -0.32913 -0.0062338 0.23186 -0.19125 -0.24979 0.34324 -0.15521 0.18588 -0.17023 0.22092 0.22735 -0.020953 0.33961 0.23143 -0.12645 -0.22934 -0.0023693 -0.011971 -0.20384 -0.0053133 -0.12129 0.65213 -0.27244 -0.092458 -0.0074272 -0.13972 0.10885 -0.27311 0.045909 -0.41781 0.54619 -0.39157 -0.32642 -0.094254 0.025959 -0.6163 -0.2471 -0.18059 -0.40782 -0.28687 -0.31607 -0.34198 -0.069837 0.19498 0.079928 0.29159 0.072264 -0.5123 -0.0093354 -0.13419 -0.30492 -0.14276 -0.4577 -0.035518 0.30194 -0.23954 0.15159 0.30376 0.019173 0.16766 -0.39211 0.041676 0.39386 0.26123 -0.11863 0.4888 0.02906 0.40359 -0.16129 0.31781 -0.12516 0.19473 0.16462 -0.19685 -0.084152 0.044041 -0.17395 0.050999 0.079081 -0.30074 0.21689 0.18415 0.2244 -0.85096 -0.050885 -0.27151 0.019389 0.40375 0.085074 -0.036191 0.12223 0.42933 0.1413 0.12457 0.16424 0.10668 -0.3163 0.21596 -0.13175 -0.099093 -0.26325 -0.059737 -0.20053 0.20645 -0.13765 -0.019891 -0.027393 0.046698 0.055477 -0.2329 0.31545 -0.81781 0.16028 0.2489 -0.23095 -0.33688 0.2483 0.23674 0.12459 0.17785 -0.066541 0.18418 -0.012781 -0.19187 -0.039706 -0.017455 0.11646 0.36906 0.050935 0.003624 0.14864 0.16557 -0.1575 0.46354 -0.53013 -0.12753 0.29381 0.36216 -0.38209 1.3191 0.1898 0.44851 0.16735 0.11295 0.041102 -0.0342 0.12371 0.20661 -0.34317 -0.55083 -0.22969 0.13681 0.16052 0.042349 -0.045451 0.18684 0.35816 -0.13092 0.064683 0.14037 -0.018886 -0.17036 0.033649 0.070695 -0.18836 0.24757 0.010185 0.11566 -0.1497 0.17524 0.071462 0.040232 -0.47853 0.12848 0.078473 -0.17651 0.14349 0.056427 -0.21569 0.078041 -0.024369 0.34778 -0.012321 -0.81704 -0.44008 0.095869 0.60679 -0.2658 0.033405 -0.026292 -0.66316 -0.21308 0.039914 0.31295 0.014981 0.055644 -0.10823 0.22976 0.07105 -0.12451 -0.30822 -0.028216 -0.047194 0.19157 0.0010422 -0.14547 -0.094471 -0.016952 0.30352 0.10725 -0.32543 0.032492 -0.13092 0.050668 0.0029718 -2.4395 -0.23187 0.069614 -0.24551 -0.29844 0.027824 0.35755 0.13492 -0.26054 0.21382 0.60157 0.061916 -0.10477 -0.43186 -0.011722 -0.62146 0.14669 -0.17836 0.12901 -0.51668 0.19324 -0.19883 -0.061105 0.11568
football 0.010569 1.4321 0.43626 0.32178 0.19188 -0.061888 -0.19103 0.45398 -0.17038 -0.42369 -0.4074 0.46453 0.32318 -0.01444 0.27276 0.15969 -0.14704 -0.46566 0.10306 -0.95177 0.2887 0.32979 -0.44688 0.80839 -0.14175 -0.052176 -0.55731 0.40684 -0.05207 -0.35442 0.43672 -0.24065 -0.031001 0.46315 -1.7289 0.34553 0.29099 0.51499 -0.074436 -0.44231 0.21949 -0.68234 -0.20027 -0.008558 0.52725 -0.28092 0.25786 0.53114 0.043228 0.071035 -0.76478 0.26675 -0.30521 -0.043119 -0.15533 0.5091 0.1734 0.40201 0.19567 -0.6101 -0.18047 0.012477 -0.47256 -0.41116 -0.60993 -0.57438 -0.19372 0.054452 0.2102 -0.6613 0.21204 0.25898 -0.64374 0.047419 -0.66838 0.068284 0.64416 0.33077 -0.31266 0.10931 0.2082 -0.22169 0.063088 -0.24223 -0.19644 -0.042293 0.030093 -0.38395 0.265 0.72299 -0.10878 0.51812 0.28387 0.25547 0.28078 0.4929 0.40588 -0.4223 0.20619 -0.47623 -0.092119 0.16987 0.026994 0.19794 0.1356 0.40051 0.70697 -0.29342 0.41029 0.8292 0.20493 -0.35692 0.00018477 -0.31075 0.28971 -0.298 0.13255 0.051104 0.12674 -0.68002 0.17606 0.018733 0.35581 0.25089 -0.11042 0.022946 -0.24898 0.42003 -0.11741 0.11636 -0.49507 0.31726 -0.39962 -0.31477 0.47088 -0.31815 0.47137 0.32267 -1.0838 -0.29166 0.19379 -0.25932 0.21829 0.080577 -0.080354 0.29132 0.18365 -0.53424 -0.25622 0.43854 0.20516 -0.36483 -0.32215 -0.050029 0.82426 -0.3127 -0.11052 -0.031793 0.29338 0.37402 0.18983 0.25515 0.04026 0.106 0.22716 -0.51498 -0.14125 0.53933 0.086271 -0.59075 0.18956 0.3107 -1.718 -0.11029 0.36761 0.53868 -0.22124 -0.0090913 -0.058676 0.42131 0.48118 -0.66177 0.15226 0.33767 0.57274 -0.74265 -0.60256 -0.12414 -0.32375 -0.3284 0.16187 0.39974 0.61949 -0.13148 -0.16213 -0.16241 0.71548 -0.02801 0.077083 0.39134 1.9324 0.47875 -0.27207 -0.31605 -0.22244 -0.72461 0.5475 0.10631 0.38385 0.01216 0.39628 0.58594 -0.95748 0.58086 -0.091178 0.068654 -0.085435 -0.13699 -0.23693 -0.61596 0.21357 -0.52458 0.084805 -0.71689 0.040534 -0.22451 0.072966 0.20073 0.17412 -0.12279 0.61513 -0.019274 0.63544 -0.47423 -0.11403 -0.14698 0.20141 0.20436 0.31713 0.50231 0.75804 -0.23799 0.39179 -0.14856 0.50199 0.29741 -0.45384 0.055388 -0.31045 -0.39399 0.58335 0.076517 -0.24904 0.060969 -0.0011772 -0.032619 0.36527 -0.10168 -0.16738 -0.26376 -0.41128 -0.3609 0.63374 0.05688 0.45206 -0.28659 -0.74985 -0.022332 0.19554 -0.024036 -0.032769 -0.2082 0.051651 -0.48501 0.84525 -0.37668 -1.5581 0.14508 0.47263 0.27157 -0.4278 -0.18931 0.044593 0.37309 0.38481 -0.27684 -0.55235 -0.33031 0.058135 -0.85419 -0.29501 0.37765 -0.18745 -0.034535 0.37245 -0.34584 0.072305 -0.32491 0.13853 -0.27496
they -0.26625 0.47964 -0.38818 0.039296 -0.020338 0.1686 0.31585 0.45174 0.28882 -1.8574 0.1042 -0.39298 -0.23483 0.087225 0.16783 0.17545 0.16778 -0.27102 0.056889 -0.22041 -0.020767 0.22512 0.51684 -0.20107 -0.41418 -0.093061 0.12105 -0.30317 -0.25972 0.26204 0.11659 0.20388 -0.16771 -0.12749 -1.0104 0.10608 -0.14708 0.43219 0.2354 -0.10528 -0.044103 -0.32034 -0.092933 0.20956 0.080815 0.35965 0.045295 0.13698 0.064083 0.11895 0.086607 -0.32393 -0.021992 -0.30357 0.017027 0.45708 -0.013127 0.26219 0.094765 0.13963 0.16302 -0.090915 0.23098 0.48729 -0.14131 -0.47962 0.24063 0.14303 -0.12603 -0.26861 0.15666 0.11863 -0.17795 0.37785 -0.016425 0.07712 0.14022 0.1406 -0.062629 -0.13203 -0.25589 0.057871 0.3396 -0.032114 0.035126 0.159 -0.12384 0.39202 0.078883 0.29796 -0.44131 0.39671 -0.21372 0.021356 -0.1208 0.23718 -0.49342 -0.13932 0.072485 -0.32701 0.31643 -0.17372 -0.20214 0.12638 0.0012871 0.102 0.16934 0.042035 -0.11136 0.30414 -0.049815 -0.30997 0.09559 -0.32313 0.15677 0.43731 -0.30181 -0.24033 0.35022 -0.19427 -0.089117 -0.58989 0.19547 0.2799 -0.17859 0.15756 0.0088832 0.1478 0.15577 -0.11193 0.018819 -0.10861 0.25189 0.099311 -0.25476 0.16634 0.21193 -0.24235 -0.040415 0.16546 -0.1443 0.13002 -0.12345 0.17074 -0.34722 0.048593 0.24775 -0.018459 -0.10089 0.088433 -0.33036 0.026864 0.036099 -0.098284 0.17065 0.090102 -0.23993 -0.34252 0.18927 -0.2196 -0.12159 -0.34413 -0.0067177 -0.032959 0.068675 0.33164 -0.099433 -0.030839 0.18564 0.11523 0.074203 -0.11162 -0.36385 0.15301 0.084523 0.0086754 -0.22075 0.63111 0.044935 0.82095 0.22 0.063324 0.25182 0.16715 -0.062336 0.11698 -0.2203 0.43544 0.67348 0.013789 0.080617 0.085087 0.33098 -0.24329 0.25222 -0.22024 -0.042539 0.26565 0.14581 -0.21546 0.72029 -0.27071 -0.063778 0.28113 0.2988 -0.13017 0.308 0.31928 -0.083157 -0.37102 -0.089416 0.26544 0.079694 0.36569 0.10879 0.062947 0.42146 0.47595 -0.08354 -0.032281 0.42548 -0.042148 -0.026053 -0.19134 -0.23835 0.097171 0.26999 0.046118 -0.12611 -0.17206 -0.097765 -0.025364 -0.10916 -0.55308 -0.17859 0.11427 -0.07081 0.15873 -0.23741 0.02136 0.02376 0.13515 0.68325 0.28773 -0.72484 -0.13002 0.45516 -0.092926 0.17352 0.32383 0.21402 -0.39301 -0.2495 0.34435 0.56643 0.29879 0.16868 -0.041737 -0.11503 0.26914 -0.032305 -0.51355 0.10059 -0.013398 -0.049054 0.0074749 -0.43329 -0.62059 -0.0010929 0.15261 0.15763 0.078986 0.18794 0.19056 -0.019385 0.086288 -2.9523 -0.11787 0.27435 0.080081 -0.33813 0.12535 -0.091461 0.15373 -0.32981 0.19537 0.1114 0.10156 0.073006 -0.25818 0.034971 -0.45354 0.031174 -0.10057 0.068828 -0.10153 -0.0012324 -0.51561 0.010936 -0.0041424
not 0.0083903 0.28769 -0.23466 -0.26343 -0.05723 0.28502 0.10119 0.20002 -0.02435 -2.3734 0.14873 0.0023303 -0.22836 0.082005 0.24612 0.13882 -0.065683 -0.24627 0.012062 -0.3102 -0.008126 0.33702 0.61853 -0.087801 -0.34962 0.097387 0.064167 -0.36328 -0.10819 0.11074 0.27759 0.594 -0.036629 -0.53521 -1.0543 -0.063224 -0.057841 0.042026 0.35488 0.22293 -0.1589 -0.094849 -0.12825 0.26653 -0.013043 0.23592 -0.018625 0.29438 -0.17797 0.17288 0.051829 -0.31989 0.11203 -0.082397 -0.061835 0.5638 -0.12197 0.25961 0.1765 0.1573 0.43797 0.014663 0.27652 0.43256 -0.25286 -0.2809 0.59157 -0.12843 0.22344 0.31124 0.25405 -0.10903 0.23563 0.17287 0.072788 0.039777 0.2686 0.6681 -0.34509 0.076461 -0.11093 -0.0092464 0.10407 0.080044 0.11562 -0.055452 -0.43124 0.25935 0.050749 0.24549 -0.86449 0.19253 -0.27081 -0.19815 -0.059485 0.2019 -0.093294 0.28263 -0.13484 -0.28851 0.074523 -0.080275 -0.2756 0.032325 -0.098853 0.43661 0.2103 0.085212 -0.12592 0.29903 -0.26555 0.068403 -0.010025 -0.2421 0.29969 0.3471 -0.42937 -0.30074 0.16097 -0.16229 -0.17247 0.087556 0.30035 0.079885 -0.046575 -0.066808 0.25359 0.40844 0.068411 0.081685 0.29057 0.18363 0.51266 -0.20767 -0.17683 0.15032 0.080769 -0.1334 -0.13474 -0.090399 0.020778 0.24384 0.2608 0.11796 -0.14556 -0.33837 0.013533 0.025232 -0.10694 0.23671 -0.15284 -0.20505 0.16882 -0.039565 0.067559 0.013432 -0.12618 -0.28391 0.32326 -0.16273 0.076871 -0.14777 0.0076579 -0.10586 0.1038 0.25845 -0.10677 0.367 -0.011593 0.13597 0.33921 0.023353 -0.51433 -0.06075 0.063809 -0.1834 0.27084 0.33339 0.22225 0.43098 0.1619 0.18504 0.3942 0.088765 -0.30046 0.23482 -0.22571 0.2151 0.13232 0.1553 -0.080698 0.029592 0.35582 -0.092191 0.10957 -0.37137 0.022432 0.15062 0.29035 -0.27372 0.8685 -0.38553 -0.32109 -0.045019 0.089732 -0.099421 0.17739 0.26876 -0.12646 -0.58945 -0.1554 -0.21913 0.0048001 0.21628 -0.25954 -0.049627 0.11868 0.40419 0.047189 0.06145 0.10713 -0.11356 -0.037351 -0.4104 -0.015776 -0.18283 0.19692 0.098901 -0.21208 -0.18432 0.036379 -0.11904 0.17955 -0.34973 -0.3327 0.083915 0.11528 0.12518 -0.082051 0.096149 0.014648 -0.087497 0.38729 0.035827 -0.6294 0.43413 0.27136 -0.008977 -0.094551 0.05824 0.063323 -0.13797 -0.43484 0.16405 0.39335 -0.11051 -0.14452 -0.22014 0.16555 -0.10479 -0.068364 -0.2696 0.0032207 0.20776 -0.38574 0.09903 0.1494 -0.30019 0.0064217 0.2124 0.28238 0.040273 0.069026 0.093943 -0.032864 0.36117 -2.7186 -0.011105 0.45697 0.040385 0.27305 0.095956 0.04941 0.42489 -0.33798 0.12939 0.081935 0.11641 -0.1253 -0.0065135 -0.093068 -0.43507 0.52599 -0.0089513 0.1358 -0.12886 -0.04175 -0.6641 0.10303 0.1219
bigger -0.48775 0.28425 -0.10458 0.018223 0.33001 0.51499 0.52978 0.64139 -0.040189 -1.1586 -0.032422 0.3734 0.15942 0.41983 -0.14379 -0.56943 -0.092566 -0.28231 0.063904 -0.014066 0.086157 0.66899 0.2406 0.32296 -0.20176 0.43692 -0.11217 -0.65714 0.53097 -0.070925 -0.39351 -0.45003 -0.34315 0.14464 -1.052 -0.019651 -0.2682 -0.44947 0.21787 0.60116 -0.072896 -0.24181 0.38349 -0.032181 -0.11742 0.1693 0.24393 -0.19322 0.52072 -0.075237 0.29144 0.087704 -0.10939 -0.068217 -0.23389 -0.020958 -0.31475 0.27628 0.14441 -0.36743 -0.1816 -0.38151 -0.12793 -0.27589 0.41254 0.3979 -0.34033 -0.19632 -0.096843 0.33478 -0.040385 0.25396 -0.0022851 0.24454 0.3717 -0.30431 -0.23916 0.068394 -0.12482 -0.10056 -0.103 0.30192 0.011431 -0.53545 0.13438 -0.030887 0.067691 0.011947 -0.39482 -0.21553 0.246 0.18345 -0.43253 -0.080305 -0.28958 -0.46138 -0.53453 -0.20536 -0.14604 -0.55638 -0.56039 -0.28264 -0.75598 -0.52372 0.19916 0.4733 -0.08709 0.045019 -0.53684 0.062866 -0.57006 -0.083455 -0.42193 -0.31052 0.12506 0.19738 0.64883 0.4401 0.097416 -0.34929 0.074354 -0.37331 0.40027 0.79186 -0.029775 0.21919 0.37762 -0.1049 -0.0042248 -0.1996 0.075697 0.16307 -0.51996 0.29399 0.47244 0.094235 0.031662 -0.28845 -0.09156 -0.01741 -0.26688 0.05161 0.22071 0.1814 -0.36296 0.19531 -0.20191 0.4975 -0.23817 0.1332 0.0055345 0.24355 0.16899 -0.11236 0.01572 -0.14081 -0.24072 0.5678 -0.4849 0.093404 -0.12388 0.58938 -0.12934 0.23517 0.18869 -0.45599 -0.224 -0.032968 0.23084 0.059057 -0.15659 -0.18419 -0.15955 -0.24038 0.4502 -0.44852 -0.085785 -0.1385 0.8191 0.0058479 0.014369 -0.11467 0.18451 0.087854 0.11436 -0.17976 0.11743 0.37329 -0.24388 -0.33551 0.22935 0.21214 0.017472 -0.071464 0.42162 -0.010288 0.40238 0.0445 0.3261 -0.068503 1.0185 -0.31218 0.042499 -0.19653 -0.21065 -0.1482 -0.095825 -0.17857 -0.24595 -0.40558 -0.52475 0.3355 -0.034285 -0.26547 0.45608 0.26458 0.063218 0.50168 -0.095729 -0.27706 0.13837 0.037709 -0.20025 0.22029 0.16477 -0.39093 0.32777 0.4261 0.045919 -0.16565 -0.12603 -0.067844 -0.18793 0.10935 0.14152 -0.067158 0.092629 0.22224 0.23228 -0.27261 0.16836 -0.059693 0.56991 -0.26041 -0.87657 -0.87466 -0.27264 0.5614 -0.38274 -0.22573 -0.1906 -0.10539 -0.10867 0.30122 -0.22092 0.0075786 -0.12315 -0.34765 -0.22791 -0.079969 0.1311 -0.45992 0.10514 0.21806 0.32585 -0.26569 -0.3926 0.051412 -0.15413 0.29217 0.3941 0.39684 -0.16439 -0.16488 -0.034138 -0.003428 -1.7712 -0.097453 -0.21418 -0.096603 -0.14543 0.71323 0.14201 0.30681 0.20146 -0.2468 0.028967 -0.25715 0.33567 0.10335 0.18519 0.0097825 0.30972 -0.15854 0.18419 0.1734 -0.026356 0.0053254 -0.055886 0.091063
gray -0.28267 -0.12814 -0.0052302 -0.36965 -0.43215 -0.15905 -0.15425 0.1728 0.019354 -0.4845 0.3109 0.099027 0.21877 0.35347 -0.27071 0.053053 0.040828 -0.56556 -0.31971 0.30314 -0.24094 0.11126 0.28951 0.4769 -0.7856 -0.44588 0.55853 -0.20367 0.15919 0.061042 0.077344 0.23787 -0.26982 -0.43281 -0.59141 0.7046 0.39612 -0.23612 -0.24697 -0.24671 0.019357 0.31817 0.20755 -0.14485 0.17079 -0.38828 -0.10352 -0.40037 -0.053973 -0.7455 0.11403 0.10816 0.19273 -0.11798 0.43287 0.14849 -0.3885 -0.38092 -0.17435 -0.39491 0.23582 -0.11822 0.50038 -0.40367 -0.051437 -0.46441 -0.18611 0.48958 0.49711 -0.298 0.37065 -0.18903 -0.085592 0.22383 -0.39191 0.08552 -0.59605 0.62198 0.56781 -0.74944 0.21772 0.4677 -0.36309 0.26962 0.13782 0.45203 0.55887 0.41829 -0.037297 -0.2107 -0.03151 0.40607 -0.28542 0.31533 -0.15524 0.5058 0.39733 0.11467 0.44391 0.24888 0.38349 -0.20766 -0.082918 0.18881 -0.53939 0.19139 0.10736 0.085106 -0.17585 0.13179 -0.28579 -0.13212 -0.18193 -0.029892 0.22887 -0.30555 -0.13782 0.51217 -0.28011 -0.82213 -0.13684 0.058643 -0.10419 0.47562 -0.10163 -0.042186 0.027349 0.012125 -0.18003 -0.2517 -0.24126 -0.20612 -0.32868 0.24787 0.28045 0.21791 -0.5362 0.2296 0.12691 -0.12862 0.31699 0.56235 -0.063137 -0.10776 -0.28645 0.20526 0.071963 -0.060948 -0.06578 -0.18054 0.80167 0.081204 -0.17263 -0.61813 0.39276 -0.78102 0.088118 -0.9284 0.40518 0.58896 -0.60272 -0.27095 0.60366 0.16167 -0.26192 0.13585 -0.32287 0.5686 0.22799 -0.041208 -0.12542 0.31687 -0.10991 0.019022 -0.013426 0.011127 0.20982 0.27124 0.087245 -0.60281 0.33041 0.44975 0.20665 -0.20587 -0.22717 -0.5272 0.28689 -0.32659 -0.4349 0.38813 0.462 0.16318 -0.26039 -0.0015621 0.32316 -0.26209 -0.048794 0.44521 -0.48054 -0.27872 1.1253 -0.32985 0.11229 -0.24016 0.16115 0.01292 0.13876 0.1385 -0.71047 -0.56058 0.48434 -0.00031165 0.12437 -0.22667 0.20828 0.21002 0.91116 -0.27293 0.23417 -0.80077 0.4847 -0.056495 0.41717 0.25846 0.18148 0.28896 0.34873 -0.098685 0.2011 -0.29841 0.32 0.18112 -0.0054955 0.09766 -0.2449 -0.041609 -0.0086314 0.23078 -0.52086 -0.13642 -0.065019 -0.32073 -0.30573 0.23911 -0.7224 0.26116 0.040846 -1.0385 0.13801 0.044704 -0.2903 0.23925 -0.061038 -0.12088 0.85907 0.041776 0.49939 0.31824 0.34053 0.012337 0.39114 0.15053 0.46352 0.1367 -0.10919 0.3342 0.33401 -0.18801 -0.32917 0.020144 -0.41783 -0.30035 -0.19571 -0.42008 -0.69004 0.30254 -0.81173 0.28601 -0.25088 0.36599 -0.30501 0.34553 -0.06144 -0.024877 -0.20018 0.28485 -0.58783 0.3696 0.20425 0.14324 0.36428 0.59289 -0.074405 0.72204 -0.090389 -0.04553 0.27937 0.42391 0.25683 0.79575
school -0.64161 0.06824 0.051487 0.064869 0.21723 0.054558 0.13024 -0.10667 0.14072 -0.93076 0.17477 0.42712 0.6672 0.44806 0.040159 0.33519 0.0069483 -0.73516 0.40616 -0.6518 0.052317 -0.27736 -0.081789 0.55772 -0.14005 0.20077 -0.15129 0.024109 0.20042 -0.0018521 1.0963 -0.3277 0.14748 0.83094 -0.89014 0.032464 -0.14011 -0.0058803 -0.24651 -0.21943 0.22134 -0.70916 -0.33977 0.22341 0.45329 0.29131 -0.019803 0.63039 0.60066 -0.55588 0.079623 -0.21045 -0.0468 -0.47401 0.092838 -0.14301 0.062879 0.29913 -0.059922 -0.36503 -0.054157 0.063134 0.41571 0.26924 0.18764 -0.74354 0.11313 -0.32984 -0.5567 -0.48854 -0.63728 -0.64813 -0.51405 -0.20622 -0.28326 -0.19427 0.23696 0.80155 -0.19739 -0.14081 0.17155 -0.28588 0.11697 -0.15297 0.38919 0.022305 0.42353 -0.40057 -0.25891 0.47362 0.19845 0.25841 0.026475 0.25707 0.076718 -0.038436 0.26509 -0.14234 -0.89589 -0.19442 -0.29115 -0.061827 0.23151 0.47197 -0.1379 -0.58582 0.012926 -0.039827 0.1092 -0.068868 -0.30203 -0.68411 0.6468 0.38228 -0.010111 0.016152 -0.22873 0.14318 -0.1832 -0.051417 0.079725 0.54102 0.086507 -0.19234 0.19465 -0.53547 -0.042695 -0.27354 0.61035 -0.16446 -0.073264 0.10742 0.64089 -0.492 0.275 0.25291 -0.1034 0.38821 -0.41347 0.038299 0.51165 -0.014268 0.12695 -0.82008 0.12296 -0.12291 0.50211 -0.16886 0.31155 0.58806 1.1202 -0.13103 0.70168 0.55765 0.13997 0.14697 -0.33871 -0.19498 0.16068 0.18296 0.81318 -0.50526 -0.05041 -0.83246 -0.36023 -0.5767 -0.066416 0.41684 -0.15166 -0.16916 0.18017 -0.11211 -0.49226 0.57539 0.18002 0.78844 -0.031432 -0.63417 0.36353 0.12123 0.087792 0.37909 -0.19283 0.0078218 0.041315 0.44721 -0.67678 0.067948 -0.026153 0.32517 -0.50928 0.071717 0.13885 -0.12809 0.24737 0.55598 -0.33073 -0.31008 0.33718 -0.29018 0.9747 0.33833 0.14512 -0.1221 -0.10004 -0.46636 -0.324 0.2066 -0.25499 0.17932 0.076575 0.095538 -0.58068 -0.28031 -0.018916 -0.1459 -0.13179 -0.27302 0.060837 -0.69488 0.25779 0.30887 -0.36916 0.26813 0.40887 -0.035938 -0.37564 -0.22307 -0.40262 0.0039288 0.010849 0.29434 -0.57996 -0.342 -0.12675 0.27396 0.99212 0.17445 -0.10461 0.25403 0.42659 -0.10019 0.35478 -0.28901 -1.1165 0.384 0.1675 -0.15567 -0.025741 -0.11852 0.44902 0.45213 -0.41616 -0.029712 0.074412 0.020578 0.71285 0.21487 -0.14977 -0.25878 -0.23096 -0.46956 0.20738 -0.63445 0.31301 0.075033 -0.30934 0.055355 -0.07039 0.67768 -0.99573 0.043487 0.25511 -0.14198 0.11963 -0.22128 -2.4439 -0.13592 0.051828 0.65525 -0.0090219 0.14642 -0.32958 -0.34853 0.15741 0.99815 -0.10566 0.25076 -0.20421 -0.48349 -0.23959 -0.32026 -0.48219 0.40511 0.4321 -0.37059 0.22151 -0.84095 -0.27062 0.25325
did 0.12859 0.25046 -0.55468 0.10083 -0.12286 0.086751 -0.089401 0.18603 0.0069671 -1.752 -0.061901 0.11747 -0.24429 0.20198 0.43828 0.244 0.30454 -0.19543 -0.048747 0.092656 0.20104 0.19082 0.5605 -0.25343 -0.40661 -0.17311 0.17961 -0.4036 -0.15338 -0.30862 0.22314 0.36006 0.14009 -0.27649 -1.2845 -0.35449 -0.14396 0.20477 0.51171 0.015398 -0.061935 -0.33536 -0.030814 0.33021 -0.0088128 0.17486 -0.13906 0.013508 -0.050082 0.18234 0.069191 -0.1293 0.14186 -0.01076 -0.10136 0.57147 -0.079249 0.23743 0.11175 0.12204 0.038659 0.011803 0.071453 0.29172 0.0058251 -0.32966 0.54368 -0.10535 0.20638 -0.15659 0.50571 -0.16733 0.038419 0.40765 -0.10801 -0.050817 0.10372 0.34703 -0.36975 0.02813 -0.080249 0.012994 0.22323 0.074101 0.012436 0.17054 -0.25013 0.28387 0.027506 0.095356 -0.5976 0.21702 -0.46953 -0.29476 -0.10338 0.0098483 -0.26145 -0.25065 -0.15957 -0.41966 0.049712 -0.074679 -0.40582 0.24277 0.17056 0.092513 -0.15734 0.32189 -0.093792 0.28291 -0.12844 -0.07567 -0.015993 -0.24335 0.097088 0.55883 -0.42673 -0.30198 0.23856 -0.081819 -0.12247 -0.081893 0.54808 -0.15616 -0.10188 -0.031975 0.039733 0.36257 0.0083738 0.25781 0.13439 0.13461 0.38598 -0.15967 0.088547 0.19829 -0.092047 -0.076738 -0.063359 0.15206 0.066048 -0.12751 0.39691 0.026452 -0.27732 -0.12438 0.090048 -0.060327 -0.0056285 0.24587 -0.33105 0.015293 0.31227 -0.25294 -0.13005 0.07027 -0.087471 -0.19247 0.43401 -0.32944 0.22706 -0.23061 -0.11371 -0.11464 -0.094253 0.37627 -0.41195 0.44677 -0.081378 0.34488 0.055022 -0.1518 -0.46488 -0.26907 0.00053771 -0.012907 0.17945 0.1985 0.21123 0.41512 0.23667 0.64004 0.32157 0.051845 -0.41468 0.16453 -0.28873 0.32694 0.21263 0.2054 -0.29734 0.086518 0.26593 -0.075156 0.28764 -0.19075 0.26678 0.31291 0.060692 -0.31241 1.2126 -0.27577 -0.12718 0.16939 0.016457 -0.062431 0.11431 0.27825 -0.35494 -0.50955 -0.29103 0.20683 0.088546 0.095706 -0.23509 -0.31824 -0.0835 0.33592 0.09978 -0.38281 0.22468 -0.088977 -0.041689 -0.16649 -0.032702 0.02435 -0.035482 -0.04325 -0.027085 -0.14328 -0.19068 -0.11835 -0.043178 -0.42113 -0.4323 -0.086356 0.1602 0.20199 0.24809 -0.14559 0.098522 -0.09635 0.36259 0.18099 -0.20688 0.18677 -0.11162 -0.23028 -0.30036 0.098079 0.09941 -0.17372 -0.14045 0.29787 0.79683 -0.022756 -0.0066536 0.081686 0.12016 -0.11127 -0.10743 -0.14147 -0.072064 -0.024543 -0.22228 0.015375 -0.12027 -0.34476 -0.19513 0.28489 0.20275 -0.0010211 0.041969 0.16692 0.1936 0.03462 -2.2457 0.14043 0.27983 0.22178 -0.046174 0.30064 0.30976 0.17262 -0.17849 0.11706 0.10125 0.19284 -0.17589 0.068428 -0.049889 -0.17214 0.29588 -0.082773 0.26703 -0.35029 -0.088684 -0.32963 0.25842 0.30136
morning -0.31335 -0.34935 -0.18683 0.22018 -0.40233 -0.099329 0.036648 0.28453 0.11132 -1.1359 -0.37663 -0.15192 0.04714 0.35868 0.36794 0.26214 0.24737 0.063621 -0.10875 0.095456 -0.011666 -0.27921 0.21323 -0.12775 0.094844 -0.22606 0.4079 -0.33665 0.094384 -0.67269 -0.031562 -0.11069 0.238 0.47571 -1.4579 0.18667 -0.27792 0.21736 -0.5094 0.2987 -0.17988 0.41031 0.0519 0.1309 0.28491 0.43715 0.66612 0.21156 -0.23279 -0.054877 0.020062 -0.25995 -0.2496 0.15523 -0.37031 0.89696 0.15936 0.085285 0.43781 -0.52287 0.36236 -0.32124 0.11222 -0.058084 -0.38356 -0.56035 0.32942 0.073086 -0.43918 -0.19268 -0.11349 -0.060238 -0.45693 -0.10867 -0.12778 0.22807 -0.062987 0.14965 0.098287 -0.1322 -0.25627 0.16723 -0.10197 0.49292 -0.064517 0.19738 -0.46145 -0.063424 0.20085 0.18028 0.20586 -0.37601 -0.32095 -0.3268 -0.2054 -0.058392 -0.22296 -0.34037 -0.0095319 -0.18993 0.31999 0.20959 -0.049671 0.53009 0.37988 0.096584 0.44991 -0.11554 -0.11936 0.33174 -0.75709 0.26989 -0.081975 -0.19531 0.55972 0.77706 -0.23204 -0.16652 0.0019187 -0.55999 -0.15305 -0.55645 -0.34237 -0.17902 -0.43441 0.090876 0.22339 0.0024178 -0.024128 0.0086222 -0.014434 0.41065 0.3232 -0.099287 -0.1073 -0.17267 -0.2549 -0.10408 0.54599 0.42384 -0.23947 0.015015 0.096702 -0.045003 -0.75141 0.044724 0.19387 -0.054901 -0.021439 0.025853 0.67539 0.29014 0.599 0.32705 0.70059 -0.076847 0.13196 -0.1688 0.5528 -0.020752 0.055931 -0.55468 0.079691 -0.29556 -0.0038097 0.42544 0.12003 -0.030476 0.1249 0.032589 -0.32266 -0.072734 -0.044556 0.24493 -0.053013 0.07866 0.040736 0.49407 0.19725 0.43963 0.09089 0.51003 -0.37244 -0.36864 -0.13848 0.84164 0.25544 -0.068885 -0.71976 -0.094052 0.14724 0.067393 -0.19161 -0.16637 -0.044809 -0.17606 -0.16687 0.016111 -0.4125 0.034671 0.55615 -0.18935 -0.19346 0.69067 -0.14323 0.030158 -0.27139 -0.31435 -0.15252 -0.14674 -0.090594 -0.12603 -0.40325 -0.53592 -0.12528 -0.27826 -0.0058818 -0.19302 0.55214 -0.020807 1.3495 -0.019959 -0.42177 0.20665 -0.14667 0.4375 0.070419 -0.33054 0.018467 -0.1526 0.27077 0.17166 -0.28415 -0.46423 0.86413 0.23248 -0.06747 -0.016879 -0.11435 -0.24787 0.2 0.056585 -0.63459 0.12506 0.36192 -0.23777 0.068547 -0.17143 0.34755 0.078854 -0.074507 0.078952 0.38292 0.069537 0.012589 0.069963 0.47019 -0.10162 0.1311 0.42635 0.17746 0.47433 -0.0021597 -0.055974 0.054127 -0.23188 0.10876 -0.53604 -0.099853 -0.29966 -0.28263 -0.406 0.059254 -0.0024321 -0.16547 0.14056 -1.8479 0.10771 0.16813 0.58637 -0.51708 -0.071614 0.33895 -0.50926 0.095954 -0.23158 -0.06626 0.26143 -0.21926 -0.27021 0.058849 -0.23135 -0.24886 0.036211 -0.21931 0.26008 0.0047893 -0.02451 -0.44238 0.46573
discarded -0.10025 0.24262 -0.1571 -0.01928 0.28624 -0.14322 0.23386 0.086211 0.12016 -0.63078 0.21986 -0.36354 -0.15247 -0.11509 0.075523 -0.65464 0.2338 -0.12299 0.05404 0.018268 0.20284 -0.27412 -0.078647 0.050204 -0.0014206 -0.3177 -0.38482 0.40618 0.53211 0.32474 0.31438 0.12976 0.04431 0.077295 -0.077646 -0.05518 -0.16984 0.11271 -0.19435 0.4141 0.03203 -0.08559 -0.31403 -0.53056 -0.39422 0.2592 0.1568 0.094673 -0.29308 0.2237 0.20017 -0.11323 -0.43245 0.29341 0.018671 -0.098216 0.20302 -0.1877 -0.34435 0.23581 0.011509 0.15409 0.18611 0.21607 0.062092 -0.58306 -0.36388 -0.025393 -0.044654 0.36426 0.14396 -0.1123 0.066407 0.49902 0.1088 0.26925 0.25302 -0.16162 0.15837 0.17739 -0.19099 0.52876 0.025849 0.62007 -0.21757 -0.0092846 0.0058036 0.022596 0.12965 0.1812 0.39223 -0.20438 0.12912 -0.2239 0.15868 0.039591 -0.28048 0.23496 0.22031 -0.87684 0.3768 0.25669 0.23027 -0.11173 0.063499 -0.036514 -0.11059 -0.25485 -0.47948 -0.03244 0.10453 0.26853 -0.045416 -0.067885 -0.039294 0.038995 0.12416 0.46232 0.006131 -0.36114 0.087198 -0.024172 -0.10477 0.51234 -0.3159 1.0306 -0.73326 -0.30268 -0.23636 0.3734 -0.084155 -0.21444 0.54192 -0.17143 0.082033 0.20897 0.65255 -0.082025 0.091649 0.044141 0.72212 -0.27403 0.046558 -0.36053 -0.12241 0.21909 0.4933 0.5293 0.11514 -0.86462 -0.58805 0.038965 -0.2328 -0.32182 -0.50081 0.062829 0.083084 -0.12773 0.17013 0.76016 0.21784 -0.44517 0.088879 0.55332 0.78658 -0.24433 0.3821 0.4301 0.058767 -0.34949 0.033241 0.075168 -0.11621 0.12745 0.079355 -0.46754 0.32465 0.42285 0.15296 -0.7695 0.36745 -0.030017 0.34532 0.13969 0.024048 -0.013065 0.14126 -0.0017429 0.42706 -0.59449 0.19689 0.14465 0.37282 -0.26463 -0.040154 0.26883 -0.5593 0.57024 -0.25203 0.21664 -0.76497 -0.21557 0.21198 -0.010248 0.087055 -0.42922 0.66165 0.05218 -0.47645 -0.11313 -0.38149 0.035226 -0.085928 0.23749 0.16881 0.083581 0.29916 -0.085985 0.066523 0.0081225 0.021828 -0.25863 0.0011168 -0.65105 0.35968 0.11205 0.22687 -0.26076 0.22225 0.43038 0.37384 -0.018958 -0.30516 0.11942 -0.18863 0.13878 -0.26009 -0.22807 -0.59284 -0.19799 -0.08364 -0.21561 0.56551 -0.035848 -0.72858 -0.019751 0.48847 -0.093109 0.097373 0.10906 0.53547 0.068708 -0.2674 -0.51924 0.36323 -0.234 0.16364 -0.14965 0.23999 -0.022612 0.15309 -0.23843 -0.57105 0.15008 0.66083 -0.13785 -0.13887 0.15567 -0.09053 0.21459 -0.041821 0.13592 0.12399 -0.047331 -0.55318 -0.0032713 -0.93043 -0.10393 -0.22728 -0.0048032 -0.081415 -0.071761 -0.31013 -0.45792 0.12085 0.45507 0.32197 -0.069644 -0.35851 -0.029127 -0.236 0.08106 0.25886 0.66768 -0.44664 -0.57021 0.33452 -0.64718 0.19456 -0.26509
